{"learner":{"attributes":{"scikit_learn":"{\"_estimator_type\": \"classifier\"}"},"feature_names":["slope","backscatter_change","correlation","ratio_change"],"feature_types":["float","float","float","float"],"gradient_booster":{"model":{"gbtree_model_param":{"num_parallel_tree":"1","num_trees":"100"},"iteration_indptr":[0,1,2,3,4,5,6,7,8,9,10,11,12,13,14,15,16,17,18,19,20,21,22,23,24,25,26,27,28,29,30,31,32,33,34,35,36,37,38,39,40,41,42,43,44,45,46,47,48,49,50,51,52,53,54,55,56,57,58,59,60,61,62,63,64,65,66,67,68,69,70,71,72,73,74,75,76,77,78,79,80,81,82,83,84,85,86,87,88,89,90,91,92,93,94,95,96,97,98,99,100],"tree_info":[0,0,0,0,0,0,0,0,0,0,0,0,0,0,0,0,0,0,0,0,0,0,0,0,0,0,0,0,0,0,0,0,0,0,0,0,0,0,0,0,0,0,0,0,0,0,0,0,0,0,0,0,0,0,0,0,0,0,0,0,0,0,0,0,0,0,0,0,0,0,0,0,0,0,0,0,0,0,0,0,0,0,0,0,0,0,0,0,0,0,0,0,0,0,0,0,0,0,0,0],"trees":[{"base_weights":[-1.1754768E-7,-2.9272928E0,1.4559718E0,-2.9309986E0,-2.616589E0,1.5178666E0,-2.344578E0,-8.7929696E-1,-8.792996E-1,-2.6112823E0,-8.685644E-1,4.5535856E-1,4.5536E-1,-1.2469327E0,-8.7929505E-1,-7.788885E-1,-2.62825E0,-1.1023049E0,-1.2476948E0,-8.025507E-1,-7.86419E-1,-1.1368396E0,-8.8698816E-1,-1.2805873E0,-1.2444725E0,-5.125472E-1,-3.330434E-1,-7.308478E-2,-3.0458373E-1,-3.9213067E-1,-3.7164563E-1,-3.6973912E-1,-3.761004E-1],"categories":[],"categories_nodes":[],"categories_segments":[],"categories_sizes":[],"default_left":[0,0,0,0,0,0,0,0,0,0,0,0,0,0,0,0,0,0,0,0,0,0,0,0,0,0,0,0,0,0,0,0,0],"id":0,"left_children":[1,3,5,7,9,11,13,-1,-1,15,-1,-1,-1,17,-1,-1,19,21,23,-1,-1,25,27,29,31,-1,-1,-1,-1,-1,-1,-1,-1],"loss_changes":[1.1598402E8,1.0392E4,4.275124E6,8E0,1.499375E2,4E0,1.8745262E5,0E0,0E0,1.98125E1,0E0,0E0,0E0,9.8125E0,0E0,0E0,8.71875E0,3.008789E0,9.09375E0,0E0,0E0,5.1537476E0,6.291565E0,8.310547E0,8.59375E0,0E0,0E0,0E0,0E0,0E0,0E0,0E0,0E0],"parents":[2147483647,0,0,1,1,2,2,3,3,4,4,5,5,6,6,9,9,13,13,16,16,17,17,18,18,21,21,22,22,23,23,24,24],"right_children":[2,4,6,8,10,12,14,-1,-1,16,-1,-1,-1,18,-1,-1,20,22,24,-1,-1,26,28,30,32,-1,-1,-1,-1,-1,-1,-1,-1],"split_conditions":[3.0889494E1,1.9912252E1,2.8865603E-1,-2.4590447E0,2.8865603E-1,8.244548E1,3.2353798E-1,-8.7929696E-1,-8.792996E-1,-3.5765013E-3,-8.685644E-1,4.5535856E-1,4.5536E-1,4.5108734E1,-8.7929505E-1,-7.788885E-1,2.6247752E-4,5.9557915E0,-7.504078E0,-8.025507E-1,-7.86419E-1,-9.220184E-1,6.717494E0,6.7893463E-1,0E0,-5.125472E-1,-3.330434E-1,-7.308478E-2,-3.0458373E-1,-3.9213067E-1,-3.7164563E-1,-3.6973912E-1,-3.761004E-1],"split_indices":[0,0,2,0,2,0,2,0,0,2,0,0,0,0,0,0,2,1,1,0,0,3,1,3,1,0,0,0,0,0,0,0,0],"split_type":[0,0,0,0,0,0,0,0,0,0,0,0,0,0,0,0,0,0,0,0,0,0,0,0,0,0,0,0,0,0,0,0,0],"sum_hessian":[2.7213158E7,9.039288E6,1.817387E7,8.932744E6,1.0654446E5,1.7882638E7,2.9123178E5,3.1881138E5,8.613932E6,1.0456328E5,1.9811792E3,3.1430666E5,1.7568332E7,1.0141124E5,1.8982053E5,5.5603164E4,4.896012E4,5.392386E2,1.0087201E5,6.1903423E3,4.276978E4,4.610164E2,7.822219E1,8.965207E3,9.19068E4,1.7757336E1,4.4325906E2,1.3486584E1,6.47356E1,5.465438E3,3.4997686E3,3.991512E4,5.199168E4],"tree_param":{"num_deleted":"0","num_feature":"4","num_nodes":"33","size_leaf_vector":"1"}},{"base_weights":[5.3390473E-2,-1.7990772E0,1.2698488E0,-5.404519E-1,-1.5970606E0,3.985324E-1,-1.4488539E0,-1.5936387E0,-1.7781379E0,-7.8353107E-1,-5.4045045E-1,-1.5841478E0,-1.6043943E0,-1.7042922E0,-5.426903E-1,-7.645579E-1,-7.8581107E-1,-1.5756726E0,-1.5941174E0,-4.9031225E-1,-1.6000255E0,-5.1208144E-1,-7.1292037E-1,-7.78165E-1,-7.2005504E-1,-8.105255E-1,-7.8102785E-1,-4.5740357E-1,-4.7331357E-1,-4.7422388E-1,-4.8068902E-1,-4.964156E-1,-4.796079E-1,-3.00209E-1,-3.1902786E-2,-2.491382E-1,-2.2947095E-1,-1.8133949E-1,-2.212786E-1,-2.464687E-1,-2.366883E-1,-2.331675E-1,-2.4045752E-1],"categories":[],"categories_nodes":[],"categories_segments":[],"categories_sizes":[],"default_left":[0,0,0,0,0,0,0,0,0,0,0,0,0,0,0,0,0,0,0,0,0,0,0,0,0,0,0,0,0,0,0,0,0,0,0,0,0,0,0,0,0,0,0],"id":1,"left_children":[1,3,5,-1,7,-1,9,11,13,15,-1,17,19,21,-1,23,25,27,29,-1,31,-1,33,35,37,39,41,-1,-1,-1,-1,-1,-1,-1,-1,-1,-1,-1,-1,-1,-1,-1,-1],"loss_changes":[5.6467412E7,4.872E3,2.409452E6,0E0,7.028125E1,0E0,7.4868625E4,9.3125E0,1.8803711E0,4.1796875E0,0E0,2.6875E0,4.484375E0,5.130615E-1,0E0,6.644043E0,1.1027344E1,1.078125E0,5.546875E-1,0E0,8.125E-1,0E0,4.9973893E-1,5.6743164E0,5.229248E0,3.1523438E0,5.8242188E0,0E0,0E0,0E0,0E0,0E0,0E0,0E0,0E0,0E0,0E0,0E0,0E0,0E0,0E0,0E0,0E0],"parents":[2147483647,0,0,1,1,2,2,4,4,6,6,7,7,8,8,9,9,11,11,12,12,13,13,15,15,16,16,17,17,18,18,20,20,22,22,23,23,24,24,25,25,26,26],"right_children":[2,4,6,-1,8,-1,10,12,14,16,-1,18,20,22,-1,24,26,28,30,-1,32,-1,34,36,38,40,42,-1,-1,-1,-1,-1,-1,-1,-1,-1,-1,-1,-1,-1,-1,-1,-1],"split_conditions":[3.0889494E1,1.9912252E1,2.8865603E-1,-5.404519E-1,2.8865603E-1,3.985324E-1,3.2353798E-1,-3.5765013E-3,3.2353798E-1,1.7581137E2,-5.4045045E-1,8.122101E-1,2.6247752E-4,1.5699871E1,-5.426903E-1,4.233238E0,2.3240561E2,-1.8677229E-1,-2.6879868E-1,-4.9031225E-1,-1.258046E1,-5.1208144E-1,-1.5072751E0,-1.4491296E-1,8.244548E1,2.4604425E0,5.6786923E0,-4.5740357E-1,-4.7331357E-1,-4.7422388E-1,-4.8068902E-1,-4.964156E-1,-4.796079E-1,-3.00209E-1,-3.1902786E-2,-2.491382E-1,-2.2947095E-1,-1.8133949E-1,-2.212786E-1,-2.464687E-1,-2.366883E-1,-2.331675E-1,-2.4045752E-1],"split_indices":[0,0,2,0,2,0,2,2,2,0,0,1,2,1,0,1,0,2,3,0,1,0,3,3,0,1,1,0,0,0,0,0,0,0,0,0,0,0,0,0,0,0,0],"split_type":[0,0,0,0,0,0,0,0,0,0,0,0,0,0,0,0,0,0,0,0,0,0,0,0,0,0,0,0,0,0,0,0,0,0,0,0,0,0,0,0,0,0,0],"sum_hessian":[2.5058206E7,9.932551E6,1.5125656E7,9.814531E6,1.1801972E5,1.4806551E7,3.1910466E5,1.1584045E5,2.1792637E3,1.1054609E5,2.0855856E5,6.1617496E4,5.422296E4,6.584274E2,1.5208363E3,1.189543E4,9.8650664E4,3.3390684E4,2.822681E4,6.849178E3,4.737378E4,6.559549E2,2.4725025E0,9.097361E3,2.7980684E3,1.5969508E4,8.268116E4,1.3127012E3,3.2077982E4,1.0787065E4,1.7439746E4,1.0972228E3,4.627656E4,1.2362512E0,1.2362512E0,1.8278735E3,7.2694883E3,3.733231E2,2.424745E3,1.0538647E4,5.4308604E3,6.9774586E4,1.2906565E4],"tree_param":{"num_deleted":"0","num_feature":"4","num_nodes":"43","size_leaf_vector":"1"}},{"base_weights":[6.061554E-2,-1.4640067E0,1.163301E0,-4.4005963E-1,-1.2362671E0,1.2204841E0,-1.1119858E0,-1.2325745E0,-1.4394907E0,3.6614507E-1,3.6614525E-1,-5.35112E-1,-4.4005814E-1,-1.2225362E0,-1.2440025E0,-1.367984E0,-4.4092545E-1,-5.556929E-1,-5.330984E-1,-1.2060478E0,-1.226835E0,-1.2762709E0,-1.2393398E0,-4.1101852E-1,-6.092003E-1,-5.735105E-1,-5.318496E-1,-4.4061023E-1,-5.3365725E-1,-3.5982275E-1,-3.719312E-1,-3.656766E-1,-3.7084934E-1,-3.8347396E-1,-3.4533134E-1,-3.6844808E-1,-3.7404042E-1,-2.590042E-1,-2.6674038E-2,-1.6846524E-1,-1.935521E-1,-1.5262711E-1,-1.671648E-1,-1.22151636E-1,-2.3886202E-1,-1.5931772E-1,-1.6415055E-1],"categories":[],"categories_nodes":[],"categories_segments":[],"categories_sizes":[],"default_left":[0,0,0,0,0,0,0,0,0,0,0,0,0,0,0,0,0,0,0,0,0,0,0,0,0,0,0,0,0,0,0,0,0,0,0,0,0,0,0,0,0,0,0,0,0,0,0],"id":2,"left_children":[1,3,5,-1,7,9,11,13,15,-1,-1,17,-1,19,21,23,-1,25,27,29,31,33,35,-1,37,39,41,43,45,-1,-1,-1,-1,-1,-1,-1,-1,-1,-1,-1,-1,-1,-1,-1,-1,-1,-1],"loss_changes":[3.497329E7,5.684E3,1.570643E6,0E0,7.9453125E1,2E0,6.0586562E4,1.06875E1,2.1567383E0,0E0,0E0,4.375E0,0E0,2.53125E0,5.890625E0,9.069824E-2,0E0,3.9526367E0,5.0703125E0,1.1503906E0,1.8125E0,7.128906E-2,2.0859375E0,0E0,3.7330747E-1,4.5427246E0,2.2353516E0,7.0782166E0,3.2949219E0,0E0,0E0,0E0,0E0,0E0,0E0,0E0,0E0,0E0,0E0,0E0,0E0,0E0,0E0,0E0,0E0,0E0,0E0],"parents":[2147483647,0,0,1,1,2,2,4,4,5,5,6,6,7,7,8,8,11,11,13,13,14,14,15,15,17,17,18,18,19,19,20,20,21,21,22,22,24,24,25,25,26,26,27,27,28,28],"right_children":[2,4,6,-1,8,10,12,14,16,-1,-1,18,-1,20,22,24,-1,26,28,30,32,34,36,-1,38,40,42,44,46,-1,-1,-1,-1,-1,-1,-1,-1,-1,-1,-1,-1,-1,-1,-1,-1,-1,-1],"split_conditions":[3.0889494E1,1.9912252E1,2.8865603E-1,-4.4005963E-1,2.8865603E-1,1.9594609E2,3.2353798E-1,-3.5765013E-3,3.2353798E-1,3.6614507E-1,3.6614525E-1,-7.504078E0,-4.4005814E-1,-1.2002212E-1,2.6247752E-4,1.5699871E1,-4.4092545E-1,5.8776647E-1,-7.296854E0,6.555867E0,8.122101E-1,8.4238255E-1,5.3278264E-2,-4.1101852E-1,-1.5072751E0,4.3439454E-1,1.4030025E0,1.7410879E0,5.9557915E0,-3.5982275E-1,-3.719312E-1,-3.656766E-1,-3.7084934E-1,-3.8347396E-1,-3.4533134E-1,-3.6844808E-1,-3.7404042E-1,-2.590042E-1,-2.6674038E-2,-1.6846524E-1,-1.935521E-1,-1.5262711E-1,-1.671648E-1,-1.22151636E-1,-2.3886202E-1,-1.5931772E-1,-1.6415055E-1],"split_indices":[0,0,2,0,2,0,2,2,2,0,0,1,0,2,2,1,0,3,1,1,1,3,2,0,3,3,3,3,1,0,0,0,0,0,0,0,0,0,0,0,0,0,0,0,0,0,0],"split_type":[0,0,0,0,0,0,0,0,0,0,0,0,0,0,0,0,0,0,0,0,0,0,0,0,0,0,0,0,0,0,0,0,0,0,0,0,0,0,0,0,0,0,0,0,0,0,0],"sum_hessian":[2.0802836E7,8.730986E6,1.2071851E7,8.622741E6,1.08244695E5,1.1775897E7,2.9595428E5,1.0631988E5,1.9248103E3,1.7925721E6,9.983324E6,1.1272091E5,1.8323338E5,5.665899E4,4.9660895E4,5.860857E2,1.3387246E3,1.002098E4,1.0269992E5,1.1775209E4,4.488378E4,6.2353945E3,4.34255E4,5.83682E2,2.4037135E0,5.722E3,4.29898E3,6.215494E2,1.02078375E5,9.868997E3,1.906212E3,2.4356596E4,2.0527184E4,6.1294336E3,1.0596095E2,1.7448615E4,2.5976887E4,1.1719013E0,1.2318121E0,4.911213E3,8.1078723E2,2.261371E3,2.0376089E3,5.700869E2,5.146243E1,8.564857E4,1.64298E4],"tree_param":{"num_deleted":"0","num_feature":"4","num_nodes":"47","size_leaf_vector":"1"}},{"base_weights":[6.2163662E-2,-1.2969822E0,1.0955096E0,-3.9019808E-1,-1.0211246E0,3.4586522E-1,-9.0445095E-1,-1.0169153E0,-1.2656431E0,-3.7556928E-1,-3.9019623E-1,-1.0056304E0,-1.0298367E0,-1.1823802E0,-3.9053333E-1,-3.044392E-1,-3.7594736E-1,-9.624722E-1,-1.0073637E0,-1.0668594E0,-1.024542E0,-3.581147E-1,-8.898539E-1,-3.1665528E-1,1.2053537E-1,-3.6999202E-1,-3.8045263E-1,-3.005739E-1,-2.7488217E-1,-2.9994732E-1,-3.048796E-1,-3.1018975E-1,-3.2287925E-1,-3.0222112E-1,-3.0902517E-1,-3.1993222E-1,-3.7604014E-3,-1.6113187E-1,-8.9838326E-2,8.774752E-2,-2.1697098E-1,-1.11675814E-1,-6.272753E-2,-1.2829186E-1,-1.12071574E-1],"categories":[],"categories_nodes":[],"categories_segments":[],"categories_sizes":[],"default_left":[0,0,0,0,0,0,0,0,0,0,0,0,0,0,0,0,0,0,0,0,0,0,0,0,0,0,0,0,0,0,0,0,0,0,0,0,0,0,0,0,0,0,0,0,0],"id":3,"left_children":[1,3,5,-1,7,-1,9,11,13,15,-1,17,19,21,-1,23,25,27,29,31,33,-1,35,37,39,41,43,-1,-1,-1,-1,-1,-1,-1,-1,-1,-1,-1,-1,-1,-1,-1,-1,-1,-1],"loss_changes":[2.3272968E7,7.26E3,1.080178E6,0E0,9.5640625E1,0E0,5.5010062E4,1.246875E1,3.2434082E0,2.9091797E0,0E0,2.734375E0,7.359375E0,5.6915283E-1,0E0,3.1515465E0,2.859375E0,2.6031494E0,2.171875E0,5.493164E-1,2.5507812E0,0E0,3.4386787E0,2.0498505E0,2.7479463E0,1.7456055E1,2.0500977E1,0E0,0E0,0E0,0E0,0E0,0E0,0E0,0E0,0E0,0E0,0E0,0E0,0E0,0E0,0E0,0E0,0E0,0E0],"parents":[2147483647,0,0,1,1,2,2,4,4,6,6,7,7,8,8,9,9,11,11,12,12,13,13,15,15,16,16,17,17,18,18,19,19,20,20,22,22,23,23,24,24,25,25,26,26],"right_children":[2,4,6,-1,8,-1,10,12,14,16,-1,18,20,22,-1,24,26,28,30,32,34,-1,36,38,40,42,44,-1,-1,-1,-1,-1,-1,-1,-1,-1,-1,-1,-1,-1,-1,-1,-1,-1,-1],"split_conditions":[3.0889494E1,1.9912252E1,2.8865603E-1,-3.9019808E-1,2.8865603E-1,3.4586522E-1,3.2353798E-1,-3.5765013E-3,3.2353798E-1,4.5108734E1,-3.9019623E-1,-1.8677229E-1,2.6247752E-4,9.660328E0,-3.9053333E-1,1.4030025E0,-3.7323866E-2,-2.0565648E-1,8.122101E-1,0E0,-2.2066447E-1,-3.581147E-1,-1.4491296E-1,-9.220184E-1,4.2246413E0,-4.1477896E-2,1.332216E-3,-3.005739E-1,-2.7488217E-1,-2.9994732E-1,-3.048796E-1,-3.1018975E-1,-3.2287925E-1,-3.0222112E-1,-3.0902517E-1,-3.1993222E-1,-3.7604014E-3,-1.6113187E-1,-8.9838326E-2,8.774752E-2,-2.1697098E-1,-1.11675814E-1,-6.272753E-2,-1.2829186E-1,-1.12071574E-1],"split_indices":[0,0,2,0,2,0,2,2,2,0,0,2,2,1,0,3,3,2,1,2,3,0,3,3,3,3,3,0,0,0,0,0,0,0,0,0,0,0,0,0,0,0,0,0,0],"split_type":[0,0,0,0,0,0,0,0,0,0,0,0,0,0,0,0,0,0,0,0,0,0,0,0,0,0,0,0,0,0,0,0,0,0,0,0,0,0,0,0,0,0,0,0,0],"sum_hessian":[1.6570664E7,7.157069E6,9.413595E6,7.0628925E6,9.4176414E4,9.151072E6,2.625234E5,9.258774E4,1.5886715E3,1.1243655E5,1.5008684E5,4.9465266E4,4.3122477E4,4.910021E2,1.0976694E3,5.987035E2,1.1183784E5,1.931448E3,4.753382E4,5.3703647E3,3.775211E4,4.697198E2,2.128234E1,5.822221E2,1.6481367E1,4.8203297E4,6.363455E4,1.030767E3,9.0068097E2,2.579768E4,2.1736139E4,1.2187341E3,4.151631E3,9.269484E3,2.8482627E4,1.7536938E1,3.745401E0,3.9937435E1,5.4228467E2,1.423392E1,2.247447E0,4.753412E4,6.691772E2,8.0904565E3,5.5544094E4],"tree_param":{"num_deleted":"0","num_feature":"4","num_nodes":"45","size_leaf_vector":"1"}},{"base_weights":[6.233315E-2,-1.1986635E0,1.0491424E0,-3.610571E-1,-8.6165637E-1,3.3245453E-1,-7.4953663E-1,-8.5690266E-1,-1.1576102E0,-2.6587892E-1,-3.6105472E-1,-8.44317E-1,-8.7141156E-1,-1.0551556E0,-3.6108845E-1,-2.7967536E-1,-2.6385963E-1,-8.291421E-1,-8.5060626E-1,-9.136683E-1,-8.654414E-1,-3.3170307E-1,-9.539583E-1,-3.3602163E-1,-2.7487132E-1,-2.1178412E-1,-2.6522583E-1,-2.4672295E-1,-2.5877792E-1,-2.565715E-1,-2.4859847E-1,-2.7480072E-1,-2.3174636E-1,-2.8150603E-1,-2.5911033E-1,-2.904374E-1,-1.08724765E-1,-7.056589E-2,-1.13957755E-1,-2.9749231E-2,-8.301692E-2,-6.474443E-2,7.660282E-2,-7.769379E-2,-8.07841E-2],"categories":[],"categories_nodes":[],"categories_segments":[],"categories_sizes":[],"default_left":[0,0,0,0,0,0,0,0,0,0,0,0,0,0,0,0,0,0,0,0,0,0,0,0,0,0,0,0,0,0,0,0,0,0,0,0,0,0,0,0,0,0,0,0,0],"id":4,"left_children":[1,3,5,-1,7,-1,9,11,13,15,-1,17,19,21,-1,23,25,27,29,31,33,-1,35,37,39,41,43,-1,-1,-1,-1,-1,-1,-1,-1,-1,-1,-1,-1,-1,-1,-1,-1,-1,-1],"loss_changes":[1.6055792E7,9.277E3,7.68662E5,0E0,1.1231641E2,0E0,5.050953E4,1.3734375E1,4.718994E0,3.0292969E0,0E0,3.3496094E0,8.490234E0,9.996033E-1,0E0,3.7524414E0,6.857422E0,2.102539E0,2.3398438E0,7.866211E-1,3.28125E0,0E0,8.3148193E-1,4.8217316E0,4.232666E0,4.741905E0,2.3286133E0,0E0,0E0,0E0,0E0,0E0,0E0,0E0,0E0,0E0,0E0,0E0,0E0,0E0,0E0,0E0,0E0,0E0,0E0],"parents":[2147483647,0,0,1,1,2,2,4,4,6,6,7,7,8,8,9,9,11,11,12,12,13,13,15,15,16,16,17,17,18,18,19,19,20,20,22,22,23,23,24,24,25,25,26,26],"right_children":[2,4,6,-1,8,-1,10,12,14,16,-1,18,20,22,-1,24,26,28,30,32,34,-1,36,38,40,42,44,-1,-1,-1,-1,-1,-1,-1,-1,-1,-1,-1,-1,-1,-1,-1,-1,-1,-1],"split_conditions":[3.0889494E1,1.9912252E1,2.8865603E-1,-3.610571E-1,2.8865603E-1,3.3245453E-1,3.2353798E-1,-3.5765013E-3,3.2353798E-1,-6.2172303E0,-3.6105472E-1,-1.02207944E-1,2.6247752E-4,2.0128164E0,-3.6108845E-1,-6.805545E-2,-5.6095986E0,6.399561E0,-2.0602379E-2,8.4238255E-1,-1.258046E1,-3.3170307E-1,4.9235937E-1,2.8757266E2,-5.0020196E-2,4.2246413E0,0E0,-2.4672295E-1,-2.5877792E-1,-2.565715E-1,-2.4859847E-1,-2.7480072E-1,-2.3174636E-1,-2.8150603E-1,-2.5911033E-1,-2.904374E-1,-1.08724765E-1,-7.056589E-2,-1.13957755E-1,-2.9749231E-2,-8.301692E-2,-6.474443E-2,7.660282E-2,-7.769379E-2,-8.07841E-2],"split_indices":[0,0,2,0,2,0,2,2,2,1,0,2,2,1,0,3,1,1,2,3,1,0,3,0,3,3,1,0,0,0,0,0,0,0,0,0,0,0,0,0,0,0,0,0,0],"split_type":[0,0,0,0,0,0,0,0,0,0,0,0,0,0,0,0,0,0,0,0,0,0,0,0,0,0,0,0,0,0,0,0,0,0,0,0,0,0,0,0,0,0,0,0,0],"sum_hessian":[1.2902817E7,5.6644655E6,7.238351E6,5.583933E6,8.053265E4,7.0083125E6,2.3003844E5,7.9263375E4,1.2692681E3,1.1137932E5,1.18659125E5,4.247661E4,3.678677E4,4.0081705E2,8.6845105E2,1.4202882E4,9.717644E4,1.248509E4,2.999152E4,4.53516E3,3.225161E4,2.60727E2,1.4009004E2,1.1103785E3,1.3092503E4,2.4882615E3,9.468818E4,1.0414645E4,2.070445E3,2.4732963E4,5.2585566E3,4.4560024E3,7.915797E1,7.393142E2,3.1512295E4,1.3619188E2,3.898161E0,3.3846432E2,7.7191425E2,1.3710854E2,1.2955395E4,2.4675085E3,2.0752947E1,3.7294617E4,5.7393562E4],"tree_param":{"num_deleted":"0","num_feature":"4","num_nodes":"45","size_leaf_vector":"1"}},{"base_weights":[6.210752E-2,-1.1353576E0,1.015338E0,-3.4255308E-1,-7.279268E-1,3.2327512E-1,-6.218931E-1,-7.227193E-1,-1.0811836E0,-1.88482E-1,-3.4254992E-1,-7.091132E-1,-7.385273E-1,-9.534708E-1,-3.4235457E-1,-1.8297814E-1,-1.9342184E-1,-6.989984E-1,-7.211629E-1,-7.854188E-1,-7.319944E-1,-3.009543E-1,-8.178008E-1,-1.9153109E-1,-1.6933185E-1,-2.9636E-1,-1.871864E-1,-2.1369047E-1,-2.0585164E-1,-2.1007037E-1,-2.2022404E-1,-2.1798915E-1,-2.3801893E-1,-2.1554932E-1,-2.2337846E-1,-2.9079485E-1,-1.8832697E-1,-6.260248E-2,-5.4509558E-2,-7.761933E-2,-5.0097458E-2,-6.606705E-2,-1.1354637E-1,-5.5068377E-2,-7.0883535E-2],"categories":[],"categories_nodes":[],"categories_segments":[],"categories_sizes":[],"default_left":[0,0,0,0,0,0,0,0,0,0,0,0,0,0,0,0,0,0,0,0,0,0,0,0,0,0,0,0,0,0,0,0,0,0,0,0,0,0,0,0,0,0,0,0,0],"id":5,"left_children":[1,3,5,-1,7,-1,9,11,13,15,-1,17,19,21,-1,23,25,27,29,31,33,-1,35,37,39,41,43,-1,-1,-1,-1,-1,-1,-1,-1,-1,-1,-1,-1,-1,-1,-1,-1,-1,-1],"loss_changes":[1.1311817E7,1.1606E4,5.6231E5,0E0,1.2583203E2,0E0,4.5541023E4,1.4066406E1,6.5582275E0,2.9609375E0,0E0,3.9433594E0,9.03125E0,1.3716431E0,0E0,6.0544434E0,3.7216553E1,2.9003906E0,3.977539E0,1.2150879E0,4.147461E0,0E0,2.0569878E0,5.36499E0,4.1625366E0,2.0644165E1,9.70105E0,0E0,0E0,0E0,0E0,0E0,0E0,0E0,0E0,0E0,0E0,0E0,0E0,0E0,0E0,0E0,0E0,0E0,0E0],"parents":[2147483647,0,0,1,1,2,2,4,4,6,6,7,7,8,8,9,9,11,11,12,12,13,13,15,15,16,16,17,17,18,18,19,19,20,20,22,22,23,23,24,24,25,25,26,26],"right_children":[2,4,6,-1,8,-1,10,12,14,16,-1,18,20,22,-1,24,26,28,30,32,34,-1,36,38,40,42,44,-1,-1,-1,-1,-1,-1,-1,-1,-1,-1,-1,-1,-1,-1,-1,-1,-1,-1],"split_conditions":[3.0889494E1,1.9912252E1,2.8865603E-1,-3.4255308E-1,2.8865603E-1,3.2327512E-1,3.2353798E-1,-3.5765013E-3,3.2353798E-1,-9.716719E-3,-3.4254992E-1,8.122101E-1,2.6247752E-4,3.3072114E0,-3.4235457E-1,-1.6522378E-1,1.332216E-3,-3.7653227E0,-2.6879868E-1,0E0,6.670375E-2,-3.009543E-1,-1.9537228E-1,2.6733124E2,-7.7213326E0,0E0,4.5663548E0,-2.1369047E-1,-2.0585164E-1,-2.1007037E-1,-2.2022404E-1,-2.1798915E-1,-2.3801893E-1,-2.1554932E-1,-2.2337846E-1,-2.9079485E-1,-1.8832697E-1,-6.260248E-2,-5.4509558E-2,-7.761933E-2,-5.0097458E-2,-6.606705E-2,-1.1354637E-1,-5.5068377E-2,-7.0883535E-2],"split_indices":[0,0,2,0,2,0,2,2,2,3,0,1,2,1,0,3,3,1,3,3,2,0,3,0,1,3,1,0,0,0,0,0,0,0,0,0,0,0,0,0,0,0,0,0,0],"split_type":[0,0,0,0,0,0,0,0,0,0,0,0,0,0,0,0,0,0,0,0,0,0,0,0,0,0,0,0,0,0,0,0,0,0,0,0,0,0,0,0,0,0,0,0,0],"sum_hessian":[9.909952E6,4.3922845E6,5.517667E6,4.323457E6,6.882766E4,5.315575E6,2.0209217E5,6.783079E4,9.968687E2,1.1021805E5,9.187412E4,3.647875E4,3.1352037E4,3.2402954E2,6.728391E2,5.2150695E4,5.8067355E4,1.986377E4,1.661498E4,3.8192239E3,2.7532812E4,2.3246059E2,9.156897E1,3.204998E4,2.0100713E4,3.313848E3,5.4753508E4,9.72385E3,1.0139921E4,6.3621763E3,1.0252804E4,4.673461E2,3.351878E3,1.3321651E4,1.4211161E4,4.8667606E1,4.2901367E1,1.1674459E4,2.0375521E4,5.099858E2,1.9590727E4,1.7215604E3,1.5922875E3,5.0992727E4,3.7607832E3],"tree_param":{"num_deleted":"0","num_feature":"4","num_nodes":"45","size_leaf_vector":"1"}},{"base_weights":[6.175821E-2,-1.0920132E0,9.889281E-1,-3.3021075E-1,-6.085125E-1,3.1684592E-1,-5.119275E-1,-6.0303277E-1,-1.020736E0,-1.3344438E-1,-3.3020657E-1,-5.889427E-1,-6.19543E-1,-8.6283857E-1,-3.29796E-1,-1.3002501E-1,-1.4254935E-1,-5.29573E-1,-5.9137696E-1,-6.695374E-1,-6.126855E-1,-8.8330555E-1,-4.3139476E-1,-1.1305044E-1,-1.3653466E-1,-1.5734263E-1,-1.1214846E-1,-1.7502545E-1,-1.4044201E-1,-1.7454481E-1,-1.8084346E-1,-2.0312716E-1,-1.7585562E-1,-2.1117075E-1,-1.8316647E-1,-2.798873E-1,-2.3236658E-1,-2.0449758E-1,1.194228E-1,-4.913949E-2,-3.25737E-2,-4.76771E-2,-3.8664643E-2,-5.841613E-2,-4.4889886E-2,-3.1353235E-2,-5.0133828E-2],"categories":[],"categories_nodes":[],"categories_segments":[],"categories_sizes":[],"default_left":[0,0,0,0,0,0,0,0,0,0,0,0,0,0,0,0,0,0,0,0,0,0,0,0,0,0,0,0,0,0,0,0,0,0,0,0,0,0,0,0,0,0,0,0,0,0,0],"id":6,"left_children":[1,3,5,-1,7,-1,9,11,13,15,-1,17,19,21,-1,23,25,27,29,31,33,35,37,39,41,43,45,-1,-1,-1,-1,-1,-1,-1,-1,-1,-1,-1,-1,-1,-1,-1,-1,-1,-1,-1,-1],"loss_changes":[8.073298E6,1.41265E4,4.22184E5,0E0,1.3348633E2,0E0,3.99742E4,1.3265625E1,8.697144E0,3.3812256E0,0E0,4.2578125E0,8.831055E0,1.94104E0,0E0,8.757446E0,1.338501E1,3.8797607E0,2.9697266E0,1.6435547E0,4.180664E0,6.278534E-1,3.14942E0,4.977417E0,9.810913E0,5.747101E0,4.079117E0,0E0,0E0,0E0,0E0,0E0,0E0,0E0,0E0,0E0,0E0,0E0,0E0,0E0,0E0,0E0,0E0,0E0,0E0,0E0,0E0],"parents":[2147483647,0,0,1,1,2,2,4,4,6,6,7,7,8,8,9,9,11,11,12,12,13,13,15,15,16,16,17,17,18,18,19,19,20,20,21,21,22,22,23,23,24,24,25,25,26,26],"right_children":[2,4,6,-1,8,-1,10,12,14,16,-1,18,20,22,-1,24,26,28,30,32,34,36,38,40,42,44,46,-1,-1,-1,-1,-1,-1,-1,-1,-1,-1,-1,-1,-1,-1,-1,-1,-1,-1,-1,-1],"split_conditions":[3.0889494E1,1.9912252E1,2.8865603E-1,-3.3021075E-1,2.8865603E-1,3.1684592E-1,3.2353798E-1,-3.5765013E-3,3.2353798E-1,1.9879866E-1,-3.3020657E-1,-1.8677229E-1,2.6247752E-4,9.660328E0,-3.29796E-1,-1.2953892E0,-1.6452227E0,-2.0565648E-1,8.122101E-1,1.0677014E-1,-1.258046E1,2.0128164E0,-1.4491296E-1,-4.002148E-1,9.8122215E-1,2.932581E-1,4.5663548E0,-1.7502545E-1,-1.4044201E-1,-1.7454481E-1,-1.8084346E-1,-2.0312716E-1,-1.7585562E-1,-2.1117075E-1,-1.8316647E-1,-2.798873E-1,-2.3236658E-1,-2.0449758E-1,1.194228E-1,-4.913949E-2,-3.25737E-2,-4.76771E-2,-3.8664643E-2,-5.841613E-2,-4.4889886E-2,-3.1353235E-2,-5.0133828E-2],"split_indices":[0,0,2,0,2,0,2,2,2,3,0,2,2,1,0,1,1,2,1,3,1,1,3,3,1,3,1,0,0,0,0,0,0,0,0,0,0,0,0,0,0,0,0,0,0,0,0],"split_type":[0,0,0,0,0,0,0,0,0,0,0,0,0,0,0,0,0,0,0,0,0,0,0,0,0,0,0,0,0,0,0,0,0,0,0,0,0,0,0,0,0,0,0,0,0,0,0],"sum_hessian":[7.5469555E6,3.3625692E6,4.184386E6,3.3032045E6,5.9364812E4,4.004998E6,1.7938797E5,5.858845E4,7.7636E2,1.0919412E5,7.019385E4,3.1630898E4,2.6957553E4,2.6196936E2,5.143906E2,7.939332E4,2.9800793E4,1.2544547E3,3.0376443E4,3.239979E3,2.3717574E4,2.4910495E2,1.2864428E1,2.2012295E4,5.7381027E4,2.0043377E4,9.757416E3,6.639851E2,5.9046967E2,1.6571822E4,1.3804621E4,2.9642454E3,2.757337E2,5.3382404E2,2.318375E4,1.6581847E2,8.3286476E1,1.0019572E1,2.844855E0,1.7795839E3,2.023271E4,1.4611724E4,4.27693E4,3.423148E3,1.6620229E4,8.569522E3,1.1878938E3],"tree_param":{"num_deleted":"0","num_feature":"4","num_nodes":"47","size_leaf_vector":"1"}},{"base_weights":[6.134982E-2,-1.0607256E0,9.6654415E-1,-3.217146E-1,-4.997954E-1,3.1227127E-1,-4.161362E-1,-4.942871E-1,-9.675971E-1,-9.427385E-2,-3.217091E-1,-4.6491364E-1,-5.022636E-1,-7.7577937E-1,-3.210628E-1,-8.085713E-2,-9.589422E-2,-4.5690027E-1,-5.162095E-1,-4.7970885E-1,-5.0753313E-1,-8.568038E-1,-6.347074E-1,-9.2572436E-2,-4.2807456E-2,-1.1342204E-1,-9.251348E-2,-1.733069E-1,-1.361766E-1,-1.8123674E-1,-1.4426862E-1,-1.6842616E-1,-1.418972E-1,-1.4710641E-1,-1.5830092E-1,-2.6268312E-1,-1.8238266E-1,-2.3909448E-1,-1.4182837E-1,-4.1694313E-2,-2.5084468E-2,-2.1387788E-2,-2.1373354E-4,-3.4325924E-2,3.513153E-2,-1.8036641E-2,-2.830797E-2],"categories":[],"categories_nodes":[],"categories_segments":[],"categories_sizes":[],"default_left":[0,0,0,0,0,0,0,0,0,0,0,0,0,0,0,0,0,0,0,0,0,0,0,0,0,0,0,0,0,0,0,0,0,0,0,0,0,0,0,0,0,0,0,0,0,0,0],"id":7,"left_children":[1,3,5,-1,7,-1,9,11,13,15,-1,17,19,21,-1,23,25,27,29,31,33,35,37,39,41,43,45,-1,-1,-1,-1,-1,-1,-1,-1,-1,-1,-1,-1,-1,-1,-1,-1,-1,-1,-1,-1],"loss_changes":[5.808096E6,1.669425E4,3.2541875E5,0E0,1.3346484E2,0E0,3.4117227E4,1.1802734E1,1.1056152E1,2.3483276E0,0E0,4.2800293E0,4.557617E0,1.9033661E0,0E0,5.204666E0,5.7191772E0,3.1589355E0,4.2936707E0,3.9438477E0,1.1061523E1,9.0774536E-2,1.7772255E0,3.70195E0,3.30054E0,3.6082E0,4.8424683E0,0E0,0E0,0E0,0E0,0E0,0E0,0E0,0E0,0E0,0E0,0E0,0E0,0E0,0E0,0E0,0E0,0E0,0E0,0E0,0E0],"parents":[2147483647,0,0,1,1,2,2,4,4,6,6,7,7,8,8,9,9,11,11,12,12,13,13,15,15,16,16,17,17,18,18,19,19,20,20,21,21,22,22,23,23,24,24,25,25,26,26],"right_children":[2,4,6,-1,8,-1,10,12,14,16,-1,18,20,22,-1,24,26,28,30,32,34,36,38,40,42,44,46,-1,-1,-1,-1,-1,-1,-1,-1,-1,-1,-1,-1,-1,-1,-1,-1,-1,-1,-1,-1],"split_conditions":[3.0889494E1,1.9912252E1,2.8865603E-1,-3.217146E-1,2.8865603E-1,3.1227127E-1,3.2353798E-1,-8.52894E-2,3.2353798E-1,1.7581137E2,-3.217091E-1,7.2380886E0,-3.024312E-1,2.0128164E0,-3.210628E-1,4.233238E0,2.3240561E2,-1.3698187E1,8.509626E0,-2.4643154E0,0E0,9.5228314E-1,-1.9537228E-1,8.244548E1,-1.7253926E-1,1.5699871E1,2.4478725E2,-1.733069E-1,-1.361766E-1,-1.8123674E-1,-1.4426862E-1,-1.6842616E-1,-1.418972E-1,-1.4710641E-1,-1.5830092E-1,-2.6268312E-1,-1.8238266E-1,-2.3909448E-1,-1.4182837E-1,-4.1694313E-2,-2.5084468E-2,-2.1387788E-2,-2.1373354E-4,-3.4325924E-2,3.513153E-2,-1.8036641E-2,-2.830797E-2],"split_indices":[0,0,2,0,2,0,2,2,2,0,0,1,3,1,0,1,0,1,1,1,1,3,3,0,3,1,0,0,0,0,0,0,0,0,0,0,0,0,0,0,0,0,0,0,0,0,0],"split_type":[0,0,0,0,0,0,0,0,0,0,0,0,0,0,0,0,0,0,0,0,0,0,0,0,0,0,0,0,0,0,0,0,0,0,0,0,0,0,0,0,0,0,0,0,0,0,0],"sum_hessian":[5.7183375E6,2.5532895E6,3.165048E6,2.5013102E6,5.1979184E4,3.00352E6,1.61528E5,5.137629E4,6.028943E2,1.0837436E5,5.3153645E4,1.0984629E4,4.039166E4,2.1309883E2,3.8979544E2,1.168373E4,9.6690625E4,9.509043E3,1.4755854E3,7.6670684E3,3.2724592E4,1.3213426E2,8.096458E1,8.932137E3,2.751594E3,1.5628798E4,8.106183E4,2.2417708E2,9.284866E3,4.182536E2,1.0573318E3,5.762102E2,7.0908584E3,1.7673094E4,1.5051499E4,1.2050888E2,1.1625383E1,3.8482677E1,4.24819E1,1.4427588E3,7.4893774E3,1.6406755E3,1.1109183E3,1.5561951E4,6.6846886E1,4.373418E3,7.6688414E4],"tree_param":{"num_deleted":"0","num_feature":"4","num_nodes":"47","size_leaf_vector":"1"}},{"base_weights":[6.0873706E-2,-1.0368322E0,9.4574606E-1,-3.1574094E-1,-4.0174848E-1,3.0897984E-1,-3.3341724E-1,-3.964681E-1,-9.160085E-1,-6.645988E-2,-3.157336E-1,-3.821944E-1,-4.1344136E-1,-6.885656E-1,-3.148038E-1,-5.6480137E-3,-6.678904E-2,-3.799707E-1,-4.5059377E-1,-4.687051E-1,-4.060471E-1,-7.234631E-1,-2.8928167E-1,-1.2643508E-2,3.8456106E-1,-6.5476246E-2,-8.012708E-2,-1.067312E-1,-1.1592106E-1,-6.977297E-2,-1.4642724E-1,-1.1780372E-1,-1.4380203E-1,-1.1551473E-1,-1.2607603E-1,-2.341186E-1,-1.8017218E-1,-1.3463199E-1,6.7479186E-2,-8.14087E-2,1.2145654E-3,2.7630955E-1,4.4757854E-2,-2.0653887E-2,-1.6857896E-2,-2.4183298E-2,2.226225E-1],"categories":[],"categories_nodes":[],"categories_segments":[],"categories_sizes":[],"default_left":[0,0,0,0,0,0,0,0,0,0,0,0,0,0,0,0,0,0,0,0,0,0,0,0,0,0,0,0,0,0,0,0,0,0,0,0,0,0,0,0,0,0,0,0,0,0,0],"id":8,"left_children":[1,3,5,-1,7,-1,9,11,13,15,-1,17,19,21,-1,23,25,27,29,31,33,35,37,39,41,43,45,-1,-1,-1,-1,-1,-1,-1,-1,-1,-1,-1,-1,-1,-1,-1,-1,-1,-1,-1,-1],"loss_changes":[4.197677E6,1.9154875E4,2.5767225E5,0E0,1.25510254E2,0E0,2.8361096E4,1.0958008E1,1.3541718E1,2.1564941E0,0E0,3.6218262E0,8.369385E0,2.2534485E0,0E0,1.5913249E0,1.8713074E0,3.6235352E0,6.26149E0,1.8052979E0,5.352051E0,6.6381836E-1,1.4026461E0,2.4709508E0,1.1590531E0,3.0486755E0,3.878769E0,0E0,0E0,0E0,0E0,0E0,0E0,0E0,0E0,0E0,0E0,0E0,0E0,0E0,0E0,0E0,0E0,0E0,0E0,0E0,0E0],"parents":[2147483647,0,0,1,1,2,2,4,4,6,6,7,7,8,8,9,9,11,11,12,12,13,13,15,15,16,16,17,17,18,18,19,19,20,20,21,21,22,22,23,23,24,24,25,25,26,26],"right_children":[2,4,6,-1,8,-1,10,12,14,16,-1,18,20,22,-1,24,26,28,30,32,34,36,38,40,42,44,46,-1,-1,-1,-1,-1,-1,-1,-1,-1,-1,-1,-1,-1,-1,-1,-1,-1,-1,-1,-1],"split_conditions":[3.0889494E1,1.9912252E1,2.8865603E-1,-3.1574094E-1,2.8865603E-1,3.0897984E-1,3.2353798E-1,-3.5765013E-3,3.2353798E-1,4.5108734E1,-3.157336E-1,1.1998992E1,2.6247752E-4,8.509626E0,-3.148038E-1,1.2788467E1,7.621353E0,-1.2002212E-1,-2.2949367E0,0E0,5.3278264E-2,2.0128164E0,-1.14441514E-1,-9.220184E-1,-1.5072751E0,2.4604425E0,1.9955207E0,-1.067312E-1,-1.1592106E-1,-6.977297E-2,-1.4642724E-1,-1.1780372E-1,-1.4380203E-1,-1.1551473E-1,-1.2607603E-1,-2.341186E-1,-1.8017218E-1,-1.3463199E-1,6.7479186E-2,-8.14087E-2,1.2145654E-3,2.7630955E-1,4.4757854E-2,-2.0653887E-2,-1.6857896E-2,-2.4183298E-2,2.226225E-1],"split_indices":[0,0,2,0,2,0,2,2,2,0,0,1,2,1,0,1,1,2,3,3,2,1,3,3,3,1,3,0,0,0,0,0,0,0,0,0,0,0,0,0,0,0,0,0,0,0,0],"split_type":[0,0,0,0,0,0,0,0,0,0,0,0,0,0,0,0,0,0,0,0,0,0,0,0,0,0,0,0,0,0,0,0,0,0,0,0,0,0,0,0,0,0,0,0,0,0,0],"sum_hessian":[4.321576E6,1.9288232E6,2.3927528E6,1.8824709E6,4.6352387E4,2.2450008E6,1.47752E5,4.588303E4,4.6935394E2,1.0774867E5,4.0003332E4,2.4936324E4,2.0946707E4,1.7574231E2,2.9361163E2,5.8018463E2,1.07168484E5,2.4157506E4,7.7881976E2,2.4645593E3,1.8482148E4,1.608703E2,1.4872001E1,5.7091705E2,9.267549E0,9.757098E4,9.597507E3,5.0848174E3,1.9072688E4,1.153497E2,6.634701E2,3.0710312E2,2.1574563E3,7.469602E3,1.1012546E4,1.062817E2,5.458861E1,1.14483595E1,3.423642E0,3.367736E1,5.3723975E2,1.9377394E0,7.329809E0,7.157953E4,2.5991445E4,9.592763E3,4.7438517E0],"tree_param":{"num_deleted":"0","num_feature":"4","num_nodes":"47","size_leaf_vector":"1"}},{"base_weights":[6.029047E-2,-1.0173028E0,9.2457724E-1,-3.1147894E-1,-3.156451E-1,3.0659288E-1,-2.6329508E-1,-3.118464E-1,-3.1018007E-1,-4.6763375E-2,-3.1146917E-1,-3.108172E-1,-6.0004E-1,-4.4516284E-2,-5.2753143E-2,-2.9816553E-1,-3.2599625E-1,-6.300647E-1,-1.3066377E-1,-3.3494897E-2,-5.1030606E-2,-6.2458273E-2,-3.0313125E-2,-7.208978E-2,-9.018408E-2,-8.7136135E-2,-1.00910105E-1,-2.1007238E-1,-1.5034573E-1,-2.0060077E-1,1.0089014E-1,-2.7429584E-2,-9.346554E-3,-6.6252045E-2,-1.3822797E-2,-2.1319948E-2,-1.1466273E-2,1.8966932E-2,-1.16746435E-2],"categories":[],"categories_nodes":[],"categories_segments":[],"categories_sizes":[],"default_left":[0,0,0,0,0,0,0,0,0,0,0,0,0,0,0,0,0,0,0,0,0,0,0,0,0,0,0,0,0,0,0,0,0,0,0,0,0,0,0],"id":9,"left_children":[1,3,5,-1,7,-1,9,11,-1,13,-1,15,17,19,21,23,25,27,29,31,33,35,37,-1,-1,-1,-1,-1,-1,-1,-1,-1,-1,-1,-1,-1,-1,-1,-1],"loss_changes":[3.0399688E6,2.136525E4,2.0956262E5,0E0,1.1465918E2,0E0,2.303229E4,1.2247559E1,0E0,1.4416656E0,0E0,7.9245605E0,2.004776E0,5.6001434E0,6.3711395E0,3.1571045E0,6.8980713E0,9.0592957E-1,2.7787225E0,3.926632E0,4.1246536E1,4.259224E0,7.112961E0,0E0,0E0,0E0,0E0,0E0,0E0,0E0,0E0,0E0,0E0,0E0,0E0,0E0,0E0,0E0,0E0],"parents":[2147483647,0,0,1,1,2,2,4,4,6,6,7,7,9,9,11,11,12,12,13,13,14,14,15,15,16,16,17,17,18,18,19,19,20,20,21,21,22,22],"right_children":[2,4,6,-1,8,-1,10,12,-1,14,-1,16,18,20,22,24,26,28,30,32,34,36,38,-1,-1,-1,-1,-1,-1,-1,-1,-1,-1,-1,-1,-1,-1,-1,-1],"split_conditions":[3.0889494E1,1.9912252E1,2.8865603E-1,-3.1147894E-1,3.2353798E-1,3.0659288E-1,3.2353798E-1,2.8865603E-1,-3.1018007E-1,1.9879866E-1,-3.1146917E-1,-3.5765013E-3,9.660328E0,0E0,-1.2953892E0,-1.8677229E-1,-2.2066447E-1,2.0128164E0,-4.736848E-1,-1.0130911E1,5.7792664E-2,7.1425977E2,-9.5064926E-1,-7.208978E-2,-9.018408E-2,-8.7136135E-2,-1.00910105E-1,-2.1007238E-1,-1.5034573E-1,-2.0060077E-1,1.0089014E-1,-2.7429584E-2,-9.346554E-3,-6.6252045E-2,-1.3822797E-2,-2.1319948E-2,-1.1466273E-2,1.8966932E-2,-1.16746435E-2],"split_indices":[0,0,2,0,2,0,2,2,0,3,0,2,1,1,1,2,3,1,3,1,1,0,1,0,0,0,0,0,0,0,0,0,0,0,0,0,0,0,0],"split_type":[0,0,0,0,0,0,0,0,0,0,0,0,0,0,0,0,0,0,0,0,0,0,0,0,0,0,0,0,0,0,0,0,0,0,0,0,0,0,0],"sum_hessian":[3.264045E6,1.4527522E6,1.8112926E6,1.4106131E6,4.213914E4,1.6740314E6,1.3726122E5,4.1918887E4,2.202553E2,1.0728484E5,2.9976365E4,4.177179E4,1.4709628E2,7.8022664E4,2.9262184E4,2.2793832E4,1.8977959E4,1.3793088E2,9.16541E0,2.8986832E4,4.9035832E4,2.042622E4,8.835963E3,9.2918304E2,2.1864648E4,4.2932393E3,1.468472E4,8.6442116E1,5.1488754E1,4.0580463E0,5.1073637E0,1.1236808E3,2.786315E4,1.3889453E3,4.7646887E4,1.5071462E4,5.354759E3,7.43651E2,8.092312E3],"tree_param":{"num_deleted":"0","num_feature":"4","num_nodes":"39","size_leaf_vector":"1"}},{"base_weights":[5.9544403E-2,-9.999693E-1,9.013272E-1,-3.0840662E-1,-2.425482E-1,3.0485195E-1,-2.0516919E-1,-2.392169E-1,-3.066369E-1,-3.286982E-2,-3.083935E-1,-2.3831815E-1,-5.124629E-1,-3.225854E-2,-5.3110555E-2,-2.157652E-1,-2.445957E-1,-6.00292E-1,-3.375703E-1,-3.3693504E-2,-1.930518E-2,-6.1718106E-2,3.8596444E-2,-6.242264E-2,-8.071861E-2,-9.865892E-2,-7.278339E-2,-1.8746215E-1,-8.727589E-2,-1.7966849E-1,-2.5657512E-2,-9.872556E-3,-2.5978688E-2,-2.212044E-4,-1.3082967E-2,-6.440871E-3,-2.8485442E-2,-1.1252508E-1,1.9171737E-2],"categories":[],"categories_nodes":[],"categories_segments":[],"categories_sizes":[],"default_left":[0,0,0,0,0,0,0,0,0,0,0,0,0,0,0,0,0,0,0,0,0,0,0,0,0,0,0,0,0,0,0,0,0,0,0,0,0,0,0],"id":10,"left_children":[1,3,5,-1,7,-1,9,11,-1,13,-1,15,17,19,21,23,25,27,29,31,33,35,37,-1,-1,-1,-1,-1,-1,-1,-1,-1,-1,-1,-1,-1,-1,-1,-1],"loss_changes":[2.2013822E6,2.3219125E4,1.7478788E5,0E0,1.0111621E2,0E0,1.8336156E4,9.422607E0,0E0,1.3214874E0,0E0,5.431885E0,1.7411957E0,1.928978E0,2.4759312E0,3.404541E0,4.98645E0,4.4909096E-1,2.885725E0,3.8781967E0,4.6733265E0,3.8302622E0,2.845549E0,0E0,0E0,0E0,0E0,0E0,0E0,0E0,0E0,0E0,0E0,0E0,0E0,0E0,0E0,0E0,0E0],"parents":[2147483647,0,0,1,1,2,2,4,4,6,6,7,7,9,9,11,11,12,12,13,13,14,14,15,15,16,16,17,17,18,18,19,19,20,20,21,21,22,22],"right_children":[2,4,6,-1,8,-1,10,12,-1,14,-1,16,18,20,22,24,26,28,30,32,34,36,38,-1,-1,-1,-1,-1,-1,-1,-1,-1,-1,-1,-1,-1,-1,-1,-1],"split_conditions":[3.0889494E1,1.9912252E1,2.8865603E-1,-3.0840662E-1,3.2353798E-1,3.0485195E-1,3.2353798E-1,2.8865603E-1,-3.066369E-1,1.6685204E3,-3.083935E-1,-8.52894E-2,3.3072114E0,9.395929E2,8.9370805E-1,7.425685E0,-1.258046E1,9.5228314E-1,-1.9537228E-1,9.0122516E2,4.7651005E-1,-4.1477896E-2,-1.5589083E1,-6.242264E-2,-8.071861E-2,-9.865892E-2,-7.278339E-2,-1.8746215E-1,-8.727589E-2,-1.7966849E-1,-2.5657512E-2,-9.872556E-3,-2.5978688E-2,-2.212044E-4,-1.3082967E-2,-6.440871E-3,-2.8485442E-2,-1.1252508E-1,1.9171737E-2],"split_indices":[0,0,2,0,2,0,2,2,0,0,0,2,1,0,3,1,1,3,3,0,1,3,1,0,0,0,0,0,0,0,0,0,0,0,0,0,0,0,0],"split_type":[0,0,0,0,0,0,0,0,0,0,0,0,0,0,0,0,0,0,0,0,0,0,0,0,0,0,0,0,0,0,0,0,0,0,0,0,0,0,0],"sum_hessian":[2.4682462E6,1.0927949E6,1.3754514E6,1.053766E6,3.9028965E4,1.2461144E6,1.29337055E5,3.8864195E4,1.6476872E2,1.0694368E5,2.2393373E4,3.873865E4,1.2554638E2,1.0381112E5,3.1325625E3,8.442675E3,3.0295975E4,8.1956436E1,4.3589943E1,9.345646E4,1.0354654E4,2.86407E3,2.6849255E2,7.3824326E3,1.0602424E3,6.9324164E2,2.9602734E4,7.497901E1,6.9774175E0,2.0725386E1,2.2864557E1,9.2091586E4,1.3648773E3,5.8707017E3,4.4839526E3,1.2960658E3,1.5680043E3,1.4682808E1,2.5380974E2],"tree_param":{"num_deleted":"0","num_feature":"4","num_nodes":"39","size_leaf_vector":"1"}},{"base_weights":[5.8568202E-2,-9.8312366E-1,8.744107E-1,-3.061755E-1,-1.8269539E-1,3.0357686E-1,-1.5800875E-1,-1.7988066E-1,-3.037848E-1,-2.3076033E-2,-3.0615786E-1,-1.7752689E-1,-2.7352425E-1,3.168852E-3,-2.3541152E-2,-1.6545054E-1,-1.8847542E-1,-3.1955647E-1,-1.9095574E-1,4.0767085E-2,-4.30344E-2,-3.6565382E-2,-2.2022676E-2,-4.7425974E-2,-6.2093686E-2,-4.590486E-2,-6.1877195E-2,-1.5232809E-1,-8.9826226E-2,9.398381E-2,-6.520778E-2,-7.6691853E-3,3.394621E-2,-9.1762505E-2,-5.384031E-4,3.6488887E-2,-1.1762506E-2,-6.512007E-3,-2.5919989E-2],"categories":[],"categories_nodes":[],"categories_segments":[],"categories_sizes":[],"default_left":[0,0,0,0,0,0,0,0,0,0,0,0,0,0,0,0,0,0,0,0,0,0,0,0,0,0,0,0,0,0,0,0,0,0,0,0,0,0,0],"id":11,"left_children":[1,3,5,-1,7,-1,9,11,-1,13,-1,15,17,19,21,23,25,27,29,31,33,35,37,-1,-1,-1,-1,-1,-1,-1,-1,-1,-1,-1,-1,-1,-1,-1,-1],"loss_changes":[1.5909346E6,2.4653438E4,1.4904138E5,0E0,8.569165E1,0E0,1.4360756E4,8.026978E0,0E0,1.3025894E0,0E0,4.69458E0,3.346321E0,3.2310717E0,2.0726967E0,5.1673584E0,1.1784241E1,2.0236015E0,4.373392E0,4.9265304E0,9.045271E0,4.581257E0,1.9082642E0,0E0,0E0,0E0,0E0,0E0,0E0,0E0,0E0,0E0,0E0,0E0,0E0,0E0,0E0,0E0,0E0],"parents":[2147483647,0,0,1,1,2,2,4,4,6,6,7,7,9,9,11,11,12,12,13,13,14,14,15,15,16,16,17,17,18,18,19,19,20,20,21,21,22,22],"right_children":[2,4,6,-1,8,-1,10,12,-1,14,-1,16,18,20,22,24,26,28,30,32,34,36,38,-1,-1,-1,-1,-1,-1,-1,-1,-1,-1,-1,-1,-1,-1,-1,-1],"split_conditions":[3.0889494E1,1.9912252E1,2.8865603E-1,-3.061755E-1,3.2353798E-1,3.0357686E-1,3.2353798E-1,2.1982521E-1,-3.037848E-1,-2.2949367E0,-3.0615786E-1,0E0,9.612095E-2,4.5528128E2,-5.6656194E-1,8.695579E-2,-2.6879868E-1,-5.0637608E0,1.1228946E-1,2.482681E2,5.81873E2,8.244548E1,1.3870167E1,-4.7425974E-2,-6.2093686E-2,-4.590486E-2,-6.1877195E-2,-1.5232809E-1,-8.9826226E-2,9.398381E-2,-6.520778E-2,-7.6691853E-3,3.394621E-2,-9.1762505E-2,-5.384031E-4,3.6488887E-2,-1.1762506E-2,-6.512007E-3,-2.5919989E-2],"split_indices":[0,0,2,0,2,0,2,2,0,3,0,1,3,0,3,2,3,1,3,0,0,0,1,0,0,0,0,0,0,0,0,0,0,0,0,0,0,0,0],"split_type":[0,0,0,0,0,0,0,0,0,0,0,0,0,0,0,0,0,0,0,0,0,0,0,0,0,0,0,0,0,0,0,0,0,0,0,0,0,0,0],"sum_hessian":[1.8720018E6,8.2219656E5,1.0498051E6,7.854366E5,3.675996E4,9.264125E5,1.2339265E5,3.663692E4,1.2303981E2,1.06701266E5,1.669138E4,3.5741445E4,8.9547864E2,1.8579629E3,1.04843305E5,1.7003018E4,1.8738426E4,5.731021E2,3.2237653E2,1.0244373E3,8.335256E2,1.0944799E4,9.389851E4,1.4446171E4,2.556847E3,6.26162E3,1.2476807E4,5.3049007E1,5.200531E2,1.5500179E1,3.0687634E2,5.349177E2,4.8951956E2,1.1217342E2,7.213522E2,1.7911057E2,1.0765688E4,9.34412E4,4.573062E2],"tree_param":{"num_deleted":"0","num_feature":"4","num_nodes":"39","size_leaf_vector":"1"}},{"base_weights":[5.7281867E-2,-9.652845E-1,8.423537E-1,-3.045465E-1,-1.3530643E-1,3.0264017E-1,-1.2050405E-1,-1.330004E-1,-3.0133238E-1,-1.6188469E-2,-3.0452287E-1,-1.3228561E-1,-3.750934E-1,-1.5180608E-2,-2.7564956E-2,-2.203836E-1,-1.307777E-1,-4.0367502E-1,2.2438475E-1,-1.5947627E-2,1.03910215E-1,-1.00392485E-2,-4.5373287E-2,-1.7131455E-1,-5.625843E-2,-3.8473226E-2,-5.518029E-2,-1.6395006E-1,-9.6018605E-2,-9.920011E-2,1.8456198E-1,-3.9696107E-3,-6.9651757E-3,4.2106763E-2,-2.1219037E-2,-4.8233266E-3,2.5506223E-2,-1.7003244E-2,6.7384196E-3],"categories":[],"categories_nodes":[],"categories_segments":[],"categories_sizes":[],"default_left":[0,0,0,0,0,0,0,0,0,0,0,0,0,0,0,0,0,0,0,0,0,0,0,0,0,0,0,0,0,0,0,0,0,0,0,0,0,0,0],"id":12,"left_children":[1,3,5,-1,7,-1,9,11,-1,13,-1,15,17,19,21,23,25,27,29,31,33,35,37,-1,-1,-1,-1,-1,-1,-1,-1,-1,-1,-1,-1,-1,-1,-1,-1],"loss_changes":[1.1452996E6,2.564625E4,1.29341E5,0E0,7.025751E1,0E0,1.1100171E4,6.012024E0,0E0,1.2210388E0,0E0,4.611084E0,1.8481264E0,8.940844E0,2.7049556E0,6.6479473E0,4.6015625E0,9.985733E-1,1.3554702E0,1.9192677E0,3.996832E0,2.509898E0,3.2979736E0,0E0,0E0,0E0,0E0,0E0,0E0,0E0,0E0,0E0,0E0,0E0,0E0,0E0,0E0,0E0,0E0],"parents":[2147483647,0,0,1,1,2,2,4,4,6,6,7,7,9,9,11,11,12,12,13,13,14,14,15,15,16,16,17,17,18,18,19,19,20,20,21,21,22,22],"right_children":[2,4,6,-1,8,-1,10,12,-1,14,-1,16,18,20,22,24,26,28,30,32,34,36,38,-1,-1,-1,-1,-1,-1,-1,-1,-1,-1,-1,-1,-1,-1,-1,-1],"split_conditions":[3.0889494E1,1.9912252E1,2.8865603E-1,-3.045465E-1,3.2353798E-1,3.0264017E-1,3.2353798E-1,2.8865603E-1,-3.0133238E-1,1.1187849E3,-3.0452287E-1,-1.3698187E1,1.0854086E1,1.093766E3,-2.7422094E-1,-1.501725E-1,1.0409925E1,-1.7347155E0,-4.736848E-1,1.9879866E-1,5.035692E0,2.0324393E3,1.4845616E-1,-1.7131455E-1,-5.625843E-2,-3.8473226E-2,-5.518029E-2,-1.6395006E-1,-9.6018605E-2,-9.920011E-2,1.8456198E-1,-3.9696107E-3,-6.9651757E-3,4.2106763E-2,-2.1219037E-2,-4.8233266E-3,2.5506223E-2,-1.7003244E-2,6.7384196E-3],"split_indices":[0,0,2,0,2,0,2,2,0,0,0,1,1,0,1,2,1,1,3,3,1,0,3,0,0,0,0,0,0,0,0,0,0,0,0,0,0,0,0],"split_type":[0,0,0,0,0,0,0,0,0,0,0,0,0,0,0,0,0,0,0,0,0,0,0,0,0,0,0,0,0,0,0,0,0,0,0,0,0,0,0],"sum_hessian":[1.4266505E6,6.196057E5,8.070448E5,5.844858E5,3.5119902E4,6.8809544E5,1.1894935E5,3.5028117E4,9.178522E1,1.0652818E5,1.2421177E4,3.4926543E4,1.0157619E2,9.786087E4,8.667313E3,5.853099E2,3.434123E4,9.7265434E1,4.3107495E0,9.723548E4,6.253909E2,4.3691084E3,4.2982056E3,4.8739147E1,5.3657074E2,3.2782137E4,1.5590952E3,3.3871365E1,6.3394073E1,1.844739E0,2.4660108E0,7.079325E4,2.6442227E4,5.1757465E2,1.0781623E2,4.1089272E3,2.60181E2,3.684391E3,6.138144E2],"tree_param":{"num_deleted":"0","num_feature":"4","num_nodes":"39","size_leaf_vector":"1"}},{"base_weights":[5.5600632E-2,-9.4505763E-1,8.03854E-1,-3.0335256E-1,-9.883722E-2,3.0195048E-1,-9.117603E-2,-9.699349E-2,-2.9904544E-1,-1.1350066E-2,-3.0332074E-1,-9.524469E-2,-1.6894723E-1,-2.129908E-4,-1.211322E-2,-7.3298626E-2,-9.969011E-2,-1.7975874E-1,2.1207184E-1,-1.7044758E-2,2.8268958E-2,-4.7235623E-2,-1.1468641E-2,-2.1309944E-2,-9.3900286E-2,-2.9249603E-2,-4.473315E-2,-4.8203595E-2,-1.1116198E-1,-1.2675287E-1,1.2901752E-1,-2.3014303E-2,1.7823786E-3,1.1842537E-3,3.6129918E-2,-2.1132348E-2,1.9533016E-2,5.297321E-3,-3.7050715E-3],"categories":[],"categories_nodes":[],"categories_segments":[],"categories_sizes":[],"default_left":[0,0,0,0,0,0,0,0,0,0,0,0,0,0,0,0,0,0,0,0,0,0,0,0,0,0,0,0,0,0,0,0,0,0,0,0,0,0,0],"id":13,"left_children":[1,3,5,-1,7,-1,9,11,-1,13,-1,15,17,19,21,23,25,27,29,31,33,35,37,-1,-1,-1,-1,-1,-1,-1,-1,-1,-1,-1,-1,-1,-1,-1,-1],"loss_changes":[8.196898E5,2.6205625E4,1.13608875E5,0E0,5.6102997E1,0E0,8.491488E3,4.246643E0,0E0,9.043751E-1,0E0,3.219452E0,3.343998E0,3.2722857E0,2.2539186E0,3.0051823E0,2.9638672E0,2.7830887E0,3.308249E0,5.8849335E0,5.682863E0,4.682434E0,2.5112133E0,0E0,0E0,0E0,0E0,0E0,0E0,0E0,0E0,0E0,0E0,0E0,0E0,0E0,0E0,0E0,0E0],"parents":[2147483647,0,0,1,1,2,2,4,4,6,6,7,7,9,9,11,11,12,12,13,13,14,14,15,15,16,16,17,17,18,18,19,19,20,20,21,21,22,22],"right_children":[2,4,6,-1,8,-1,10,12,-1,14,-1,16,18,20,22,24,26,28,30,32,34,36,38,-1,-1,-1,-1,-1,-1,-1,-1,-1,-1,-1,-1,-1,-1,-1,-1],"split_conditions":[3.0889494E1,1.9912252E1,2.8865603E-1,-3.0335256E-1,3.2353798E-1,3.0195048E-1,3.2353798E-1,2.1982521E-1,-2.9904544E-1,1.4156396E2,-3.0332074E-1,-1.02207944E-1,1.7410879E0,2.101884E0,1.5570616E2,1.5699871E1,1.0409925E1,7.8255386E0,-1.258046E1,8.244548E1,2.0374011E-2,5.5429535E0,1.7581137E2,-2.1309944E-2,-9.3900286E-2,-2.9249603E-2,-4.473315E-2,-4.8203595E-2,-1.1116198E-1,-1.2675287E-1,1.2901752E-1,-2.3014303E-2,1.7823786E-3,1.1842537E-3,3.6129918E-2,-2.1132348E-2,1.9533016E-2,5.297321E-3,-3.7050715E-3],"split_indices":[0,0,2,0,2,0,2,2,0,0,0,2,3,1,0,1,1,1,1,0,3,1,0,0,0,0,0,0,0,0,0,0,0,0,0,0,0,0,0],"split_type":[0,0,0,0,0,0,0,0,0,0,0,0,0,0,0,0,0,0,0,0,0,0,0,0,0,0,0,0,0,0,0,0,0,0,0,0,0,0,0],"sum_hessian":[1.0947482E6,4.6837638E5,6.2637194E5,4.3443278E5,3.3943598E4,5.107343E5,1.1563761E5,3.3875156E4,6.844417E1,1.0640506E5,9.232547E3,3.307364E4,8.0151575E2,6.8237676E3,9.95813E4,5.573924E3,2.7499715E4,7.7991376E2,2.1602045E1,4.2893335E3,2.5344343E3,1.7933131E3,9.7787984E4,5.5230205E3,5.0903072E1,2.633492E4,1.1647949E3,7.106805E2,6.923324E1,5.28337E0,1.6318674E1,1.1921874E3,3.097146E3,2.0060854E3,5.2834875E2,1.486618E3,3.0669504E2,2.872327E3,9.491566E4],"tree_param":{"num_deleted":"0","num_feature":"4","num_nodes":"39","size_leaf_vector":"1"}},{"base_weights":[5.3441267E-2,-3.0247492E-1,7.0565605E-1,9.188191E-1,-6.913147E-2,-6.946663E-2,3.0144176E-1,-8.166022E-3,-3.0243278E-1,-1.4078058E-1,-6.827368E-2,-2.6157954E-1,-7.955226E-3,-5.095242E-1,-1.162495E-1,-5.7515457E-2,-7.7804536E-2,-3.906882E-1,-1.0146456E-1,3.9421618E-2,-8.2132025E-3,-1.929823E-1,1.4940555E-1,-2.9118245E-2,-1.5880345E-1,-2.7686642E-2,-1.4310145E-2,-1.3540347E-2,-2.832018E-2,-4.6099562E-2,-1.382414E-1,-7.462069E-2,8.081361E-2,-1.41784E-3,3.4676407E-2,-4.247353E-3,-1.8760565E-3],"categories":[],"categories_nodes":[],"categories_segments":[],"categories_sizes":[],"default_left":[0,0,0,0,0,0,0,0,0,0,0,0,0,0,0,0,0,0,0,0,0,0,0,0,0,0,0,0,0,0,0,0,0,0,0,0,0],"id":14,"left_children":[1,-1,3,5,7,9,-1,11,-1,13,15,17,19,21,23,25,27,29,31,33,35,-1,-1,-1,-1,-1,-1,-1,-1,-1,-1,-1,-1,-1,-1,-1,-1],"loss_changes":[5.870575E5,0E0,8.673569E4,3.499975E4,6.486671E3,2.7950134E0,0E0,5.6819825E0,0E0,4.8386507E0,3.3203888E0,1.787919E0,1.2997651E0,4.831932E0,3.983201E0,5.1957397E0,9.316727E0,7.367377E-1,2.2961075E0,1.9372723E0,1.2317858E0,0E0,0E0,0E0,0E0,0E0,0E0,0E0,0E0,0E0,0E0,0E0,0E0,0E0,0E0,0E0,0E0],"parents":[2147483647,0,0,2,2,3,3,4,4,5,5,7,7,9,9,10,10,11,11,12,12,13,13,14,14,15,15,16,16,17,17,18,18,19,19,20,20],"right_children":[2,-1,4,6,8,10,-1,12,-1,14,16,18,20,22,24,26,28,30,32,34,36,-1,-1,-1,-1,-1,-1,-1,-1,-1,-1,-1,-1,-1,-1,-1,-1],"split_conditions":[1.9912252E1,-3.0247492E-1,2.8865603E-1,3.0889494E1,3.2353798E-1,-1.3698187E1,3.0144176E-1,3.0889494E1,-3.0243278E-1,-1.5835963E-1,0E0,2.0128164E0,4.5108734E1,4.2246413E0,1.9123353E-1,-4.5716338E-2,-2.6879868E-1,-6.381325E0,-2.1283574E-2,8.592364E-2,2.3240561E2,-1.929823E-1,1.4940555E-1,-2.9118245E-2,-1.5880345E-1,-2.7686642E-2,-1.4310145E-2,-1.3540347E-2,-2.832018E-2,-4.6099562E-2,-1.382414E-1,-7.462069E-2,8.081361E-2,-1.41784E-3,3.4676407E-2,-4.247353E-3,-1.8760565E-3],"split_indices":[0,0,2,0,2,1,0,0,0,2,1,1,0,3,2,3,3,1,3,3,0,0,0,0,0,0,0,0,0,0,0,0,0,0,0,0,0],"split_type":[0,0,0,0,0,0,0,0,0,0,0,0,0,0,0,0,0,0,0,0,0,0,0,0,0,0,0,0,0,0,0,0,0,0,0,0,0],"sum_hessian":[8.47795E5,3.2262225E5,5.2517275E5,4.1185984E5,1.1331294E5,3.2966004E4,3.7889384E5,1.0640532E5,6.9076196E3,5.404611E2,3.2425541E4,8.740651E1,1.06317914E5,3.2478817E1,5.079823E2,1.5235309E4,1.7190232E4,4.759126E1,3.9815247E1,5.749651E2,1.05742945E5,2.8991741E1,3.4870775E0,4.8661356E2,2.1368727E1,3.3518135E3,1.1883495E4,5.792053E3,1.139818E4,1.1593138E1,3.5998123E1,2.8733665E1,1.1081581E1,3.6458273E2,2.1038237E2,2.6214812E4,7.952813E4],"tree_param":{"num_deleted":"0","num_feature":"4","num_nodes":"37","size_leaf_vector":"1"}},{"base_weights":[5.0752692E-2,-3.0182835E-1,6.463794E-1,8.946912E-1,-5.1737398E-2,-4.972715E-2,3.0106607E-1,-5.7263365E-3,-3.0177137E-1,-8.10427E-2,-4.7162626E-2,-2.036508E-1,-5.5726958E-3,-1.1422512E-1,-1.7429164E-2,-1.7738478E-2,-5.1045947E-2,-2.5489816E-1,1.8178615E-1,-4.2791883E-3,-1.2837269E-2,-2.7832586E-2,-8.140004E-2,8.944122E-3,-4.0289547E-2,-1.5072936E-1,-4.4536483E-3,2.0338113E-3,-1.6116811E-2,-1.7077199E-1,-5.0808985E-2,1.889784E-1,1.1668116E-2,-2.130404E-3,1.8396875E-3,-4.9726544E-3,2.241779E-2],"categories":[],"categories_nodes":[],"categories_segments":[],"categories_sizes":[],"default_left":[0,0,0,0,0,0,0,0,0,0,0,0,0,0,0,0,0,0,0,0,0,0,0,0,0,0,0,0,0,0,0,0,0,0,0,0,0],"id":15,"left_children":[1,-1,3,5,7,9,-1,11,-1,13,15,17,19,21,23,25,27,29,31,33,35,-1,-1,-1,-1,-1,-1,-1,-1,-1,-1,-1,-1,-1,-1,-1,-1],"loss_changes":[4.1815503E5,0E0,7.3646875E4,3.2218906E4,4.893594E3,2.597435E0,0E0,3.2325563E0,0E0,5.1703587E0,3.4202423E0,1.6750302E0,9.9842453E-1,5.401045E0,4.648387E0,4.889539E0,4.0943375E0,1.8715801E0,6.3252354E-1,2.650342E0,5.2581244E0,0E0,0E0,0E0,0E0,0E0,0E0,0E0,0E0,0E0,0E0,0E0,0E0,0E0,0E0,0E0,0E0],"parents":[2147483647,0,0,2,2,3,3,4,4,5,5,7,7,9,9,10,10,11,11,12,12,13,13,14,14,15,15,16,16,17,17,18,18,19,19,20,20],"right_children":[2,-1,4,6,8,10,-1,12,-1,14,16,18,20,22,24,26,28,30,32,34,36,-1,-1,-1,-1,-1,-1,-1,-1,-1,-1,-1,-1,-1,-1,-1,-1],"split_conditions":[1.9912252E1,-3.0182835E-1,2.8865603E-1,3.0889494E1,3.2353798E-1,-8.738311E0,3.0106607E-1,3.0889494E1,-3.0177137E-1,7.953388E-1,-1.2002212E-1,8.509626E0,5.8151894E0,1.08023405E-1,3.326473E-2,-4.119595E0,-7.0974092E0,-2.5846952E-1,9.042427E0,2.4604425E0,1.4767062E3,-2.7832586E-2,-8.140004E-2,8.944122E-3,-4.0289547E-2,-1.5072936E-1,-4.4536483E-3,2.0338113E-3,-1.6116811E-2,-1.7077199E-1,-5.0808985E-2,1.889784E-1,1.1668116E-2,-2.130404E-3,1.8396875E-3,-4.9726544E-3,2.241779E-2],"split_indices":[0,0,2,0,2,1,0,0,0,3,2,1,1,2,2,3,1,3,1,1,0,0,0,0,0,0,0,0,0,0,0,0,0,0,0,0,0],"split_type":[0,0,0,0,0,0,0,0,0,0,0,0,0,0,0,0,0,0,0,0,0,0,0,0,0,0,0,0,0,0,0,0,0,0,0,0,0],"sum_hessian":[6.642776E5,2.3943561E5,4.24842E5,3.133772E5,1.1146482E5,3.2389275E4,2.809879E5,1.0633808E5,5.126741E3,2.4493625E3,2.9939912E4,8.145452E1,1.06256625E5,1.6091788E3,8.401838E2,3.491347E3,2.6448564E4,7.2194305E1,9.260211E0,9.019787E4,1.6058761E4,1.4172709E3,1.9190794E2,5.98851E2,2.4133281E2,1.9690638E1,3.4716562E3,1.1700787E3,2.5278486E4,1.4232954E1,5.7961353E1,1.4147717E0,7.84544E0,7.096284E4,1.9235023E4,1.5402029E4,6.567317E2],"tree_param":{"num_deleted":"0","num_feature":"4","num_nodes":"37","size_leaf_vector":"1"}},{"base_weights":[4.7499288E-2,-3.0135125E-1,5.8074874E-1,8.644826E-1,-3.8576722E-2,-3.5393063E-2,3.0078828E-1,-4.014156E-3,-3.0127424E-1,1.4555004E-2,-3.657647E-2,-1.545735E-1,-3.9035731E-3,-3.1166976E-2,1.5656488E-1,-1.8461545E-1,-3.578815E-2,-3.4605196E-1,-6.258561E-2,-3.013538E-3,-1.3955076E-2,1.6426522E-3,-5.329848E-2,6.696085E-2,-9.302574E-2,-6.1995264E-2,1.3006733E-1,-9.934362E-3,-1.7226022E-2,-4.2712733E-2,-2.0696716E-1,-3.981828E-2,1.3500102E-1,-1.0652012E-3,2.3909304E-2,2.0079264E-4,-8.652392E-3],"categories":[],"categories_nodes":[],"categories_segments":[],"categories_sizes":[],"default_left":[0,0,0,0,0,0,0,0,0,0,0,0,0,0,0,0,0,0,0,0,0,0,0,0,0,0,0,0,0,0,0,0,0,0,0,0,0],"id":16,"left_children":[1,-1,3,5,7,9,-1,11,-1,13,15,17,19,21,23,25,27,29,31,33,35,-1,-1,-1,-1,-1,-1,-1,-1,-1,-1,-1,-1,-1,-1,-1,-1],"loss_changes":[2.962083E5,0E0,6.157415E4,2.9873734E4,3.674527E3,1.8909798E0,0E0,1.7690701E0,0E0,4.815729E0,3.6394806E0,1.3519577E0,9.501735E-1,3.014056E0,5.685872E0,2.340558E0,1.7955284E0,1.6586189E0,1.9976215E0,4.3352737E0,1.8809001E0,0E0,0E0,0E0,0E0,0E0,0E0,0E0,0E0,0E0,0E0,0E0,0E0,0E0,0E0,0E0,0E0],"parents":[2147483647,0,0,2,2,3,3,4,4,5,5,7,7,9,9,10,10,11,11,12,12,13,13,14,14,15,15,16,16,17,17,18,18,19,19,20,20],"right_children":[2,-1,4,6,8,10,-1,12,-1,14,16,18,20,22,24,26,28,30,32,34,36,-1,-1,-1,-1,-1,-1,-1,-1,-1,-1,-1,-1,-1,-1,-1,-1],"split_conditions":[1.9912252E1,-3.0135125E-1,2.8865603E-1,3.0889494E1,3.2353798E-1,-1.8677229E-1,3.0078828E-1,3.0889494E1,-3.0127424E-1,-1.9522347E-1,-1.7965089E-1,-1.7347155E0,1.1187849E3,5.5429535E0,5.8776647E-1,1.2788467E1,5.8776647E-1,-4.3248224E0,2.6135463E-1,1.093766E3,-2.7422094E-1,1.6426522E-3,-5.329848E-2,6.696085E-2,-9.302574E-2,-6.1995264E-2,1.3006733E-1,-9.934362E-3,-1.7226022E-2,-4.2712733E-2,-2.0696716E-1,-3.981828E-2,1.3500102E-1,-1.0652012E-3,2.3909304E-2,2.0079264E-4,-8.652392E-3],"split_indices":[0,0,2,0,2,2,0,0,0,2,2,1,0,1,3,1,3,1,3,0,1,0,0,0,0,0,0,0,0,0,0,0,0,0,0,0,0],"split_type":[0,0,0,0,0,0,0,0,0,0,0,0,0,0,0,0,0,0,0,0,0,0,0,0,0,0,0,0,0,0,0,0,0,0,0,0,0],"sum_hessian":[5.280171E5,1.776148E5,3.5040234E5,2.4030852E5,1.1009382E5,3.1981574E4,2.0832694E5,1.0629055E5,3.803268E3,7.3993176E2,3.1241643E4,7.698563E1,1.0621356E5,5.6031226E2,1.7961952E2,1.6424826E2,3.1077395E4,2.4086391E1,5.2899235E1,9.757486E4,8.638706E3,4.4897375E2,1.1133852E2,1.5763138E2,2.1988144E1,1.5923778E2,5.010487E0,2.7661133E4,3.4162607E3,1.6014261E1,8.072131E0,4.7183743E1,5.715495E0,9.694624E4,6.286187E2,4.3581597E3,4.2805464E3],"tree_param":{"num_deleted":"0","num_feature":"4","num_nodes":"37","size_leaf_vector":"1"}},{"base_weights":[4.3682702E-2,-3.0099866E-1,5.1084447E-1,8.2704866E-1,-2.8686715E-2,-2.5076186E-2,3.0058265E-1,-2.8153746E-3,-3.0089474E-1,-2.242269E-2,-4.6990365E-2,-1.18005075E-1,-2.7340394E-3,-5.94602E-3,-2.7978187E-2,-4.3186348E-2,-3.3233753E-1,-1.5684593E-1,2.592792E-1,-3.0759752E-3,1.907472E-2,-3.1144317E-2,7.689812E-4,-4.4159847E-3,-1.4997624E-2,1.3586013E-2,-1.614031E-2,-1.2888438E-1,1.5176953E-1,-1.1074255E-1,-2.8301701E-2,-1.0831103E-1,1.6795486E-1,-6.987041E-4,-7.7754315E-3,1.5366746E-1,2.6668685E-3],"categories":[],"categories_nodes":[],"categories_segments":[],"categories_sizes":[],"default_left":[0,0,0,0,0,0,0,0,0,0,0,0,0,0,0,0,0,0,0,0,0,0,0,0,0,0,0,0,0,0,0,0,0,0,0,0,0],"id":17,"left_children":[1,-1,3,5,7,9,-1,11,-1,13,15,17,19,21,23,25,27,29,31,33,35,-1,-1,-1,-1,-1,-1,-1,-1,-1,-1,-1,-1,-1,-1,-1,-1],"loss_changes":[2.0880911E5,0E0,5.036061E4,2.7737102E4,2.7494622E3,1.8419933E0,0E0,9.952044E-1,0E0,2.587901E0,3.7005482E0,1.1390128E0,7.9189247E-1,5.938561E0,6.1705017E0,3.1752577E0,3.8765087E0,8.7521493E-1,1.5767868E0,1.7837172E0,8.22923E0,0E0,0E0,0E0,0E0,0E0,0E0,0E0,0E0,0E0,0E0,0E0,0E0,0E0,0E0,0E0,0E0],"parents":[2147483647,0,0,2,2,3,3,4,4,5,5,7,7,9,9,10,10,11,11,12,12,13,13,14,14,15,15,16,16,17,17,18,18,19,19,20,20],"right_children":[2,-1,4,6,8,10,-1,12,-1,14,16,18,20,22,24,26,28,30,32,34,36,-1,-1,-1,-1,-1,-1,-1,-1,-1,-1,-1,-1,-1,-1,-1,-1],"split_conditions":[1.9912252E1,-3.0099866E-1,2.8865603E-1,3.0889494E1,3.2353798E-1,7.425685E0,3.0058265E-1,3.0889494E1,-3.0089474E-1,-1.3850228E-1,2.3202968E-1,9.660328E0,1.2788467E1,-3.874899E0,0E0,-1.9394513E0,1.3870167E1,-2.2066447E-1,-4.736848E-1,9.660328E0,9.6489494E1,-3.1144317E-2,7.689812E-4,-4.4159847E-3,-1.4997624E-2,1.3586013E-2,-1.614031E-2,-1.2888438E-1,1.5176953E-1,-1.1074255E-1,-2.8301701E-2,-1.0831103E-1,1.6795486E-1,-6.987041E-4,-7.7754315E-3,1.5366746E-1,2.6668685E-3],"split_indices":[0,0,2,0,2,1,0,0,0,3,2,1,1,1,1,3,1,3,3,1,0,0,0,0,0,0,0,0,0,0,0,0,0,0,0,0,0],"split_type":[0,0,0,0,0,0,0,0,0,0,0,0,0,0,0,0,0,0,0,0,0,0,0,0,0,0,0,0,0,0,0,0,0,0,0,0,0],"sum_hessian":[4.269025E5,1.3171016E5,2.9519234E5,1.86115E5,1.09077336E5,3.1694127E4,1.5442088E5,1.0625681E5,2.8205288E3,2.8272725E4,3.4214023E3,7.3951744E1,1.0618286E5,7.1296E3,2.1143125E4,3.377527E3,4.3875114E1,6.757888E1,6.3728676E0,1.0454458E5,1.6382777E3,5.6941034E2,6.56019E3,1.3196798E4,7.946327E3,3.6146472E2,3.0160625E3,3.9749657E1,4.125459E0,1.4255723E1,5.3323154E1,2.0143945E0,4.358473E0,1.0123518E5,3.3093958E3,3.2153675E1,1.606124E3],"tree_param":{"num_deleted":"0","num_feature":"4","num_nodes":"37","size_leaf_vector":"1"}},{"base_weights":[3.938379E-2,-3.0073768E-1,4.3949038E-1,7.8151125E-1,-2.1287851E-2,-1.772412E-2,3.004302E-1,-1.9729587E-3,-3.0059743E-1,-1.4115084E-2,-3.194537E-2,1.787288E-2,-2.3253276E-3,-1.7951692E-2,2.8910415E-2,-1.0469662E-1,-2.3735102E-2,6.678947E-3,1.5138888E-1,-2.0126053E-3,-4.056807E-2,-3.4349326E-3,-1.13402E-2,2.7328009E-2,-5.0229225E-3,-1.1253973E-1,-1.959085E-2,9.363415E-2,-8.532411E-3,2.785079E-2,-2.4441893E-3,-7.175192E-2,5.8145944E-2,-6.93856E-4,2.0413652E-2,-1.09613545E-1,-3.8206093E-3],"categories":[],"categories_nodes":[],"categories_segments":[],"categories_sizes":[],"default_left":[0,0,0,0,0,0,0,0,0,0,0,0,0,0,0,0,0,0,0,0,0,0,0,0,0,0,0,0,0,0,0,0,0,0,0,0,0],"id":18,"left_children":[1,-1,3,5,7,9,-1,11,-1,13,15,17,19,21,23,25,27,29,31,33,35,-1,-1,-1,-1,-1,-1,-1,-1,-1,-1,-1,-1,-1,-1,-1,-1],"loss_changes":[1.4669145E5,0E0,4.007041E4,2.565129E4,2.0519097E3,1.6159E0,0E0,7.4294007E-1,0E0,4.147098E0,3.8045163E0,2.7690558E0,1.2482517E0,2.9761076E0,5.8409276E0,6.8582E0,9.0634E0,2.186487E0,2.4215071E0,2.1780112E0,7.6487436E0,0E0,0E0,0E0,0E0,0E0,0E0,0E0,0E0,0E0,0E0,0E0,0E0,0E0,0E0,0E0,0E0],"parents":[2147483647,0,0,2,2,3,3,4,4,5,5,7,7,9,9,10,10,11,11,12,12,13,13,14,14,15,15,16,16,17,17,18,18,19,19,20,20],"right_children":[2,-1,4,6,8,10,-1,12,-1,14,16,18,20,22,24,26,28,30,32,34,36,-1,-1,-1,-1,-1,-1,-1,-1,-1,-1,-1,-1,-1,-1,-1,-1],"split_conditions":[1.9912252E1,-3.0073768E-1,2.8865603E-1,3.0889494E1,3.2353798E-1,6.670375E-2,3.004302E-1,-2.2949367E0,-3.0059743E-1,4.0993277E-2,-7.504078E0,1.5699871E1,1.3870167E1,-3.5765013E-3,5.1185768E-2,1.2686908E-2,-7.0974092E0,1.984565E2,1.6801535E2,1.2788467E1,1.6401723E2,-3.4349326E-3,-1.13402E-2,2.7328009E-2,-5.0229225E-3,-1.1253973E-1,-1.959085E-2,9.363415E-2,-8.532411E-3,2.785079E-2,-2.4441893E-3,-7.175192E-2,5.8145944E-2,-6.93856E-4,2.0413652E-2,-1.09613545E-1,-3.8206093E-3],"split_indices":[0,0,2,0,2,2,0,3,0,2,1,1,1,2,2,3,1,0,0,1,0,0,0,0,0,0,0,0,0,0,0,0,0,0,0,0,0],"split_type":[0,0,0,0,0,0,0,0,0,0,0,0,0,0,0,0,0,0,0,0,0,0,0,0,0,0,0,0,0,0,0,0,0,0,0,0,0],"sum_hessian":[3.5190416E5,9.764461E4,2.5425956E5,1.4593558E5,1.0832398E5,3.1491438E4,1.1444414E5,1.06232734E5,2.0912446E3,2.5118832E4,6.3726045E3,1.8524218E3,1.0438031E5,2.3062885E4,2.0559473E3,6.45051E2,5.727553E3,1.7100978E3,1.4232393E2,1.0353473E5,8.4558167E2,1.7373451E4,5.6894336E3,8.699817E2,1.1859655E3,8.093245E1,5.641186E2,7.824868E1,5.6493047E3,2.5030206E2,1.4597958E3,1.3492588E1,1.2883134E2,1.0309387E5,4.4086224E2,6.578117E1,7.798005E2],"tree_param":{"num_deleted":"0","num_feature":"4","num_nodes":"37","size_leaf_vector":"1"}},{"base_weights":[3.47759E-2,-3.005442E-1,3.6981142E-1,7.2752565E-1,-1.5775725E-2,-1.2518585E-2,3.00317E-1,-1.3839635E-3,-3.0035502E-1,-1.3030687E-2,8.463748E-2,-2.9129295E-3,3.1495627E-3,-1.2015095E-2,-7.871954E-2,5.9803274E-2,9.6603554E-1,7.155345E-4,-1.8112388E-2,5.248653E-3,-8.819579E-2,-4.0469123E-3,1.2511735E-2,-1.5238103E-1,-2.0073041E-2,-3.136388E-2,3.6512114E-2,3.9948064E-1,-2.42116E-2,-3.818711E-4,7.0352685E-3,-1.9310977E-2,-1.3551769E-3,-1.4375572E-3,4.7295187E-3,1.1413295E-2,-5.7824012E-2],"categories":[],"categories_nodes":[],"categories_segments":[],"categories_sizes":[],"default_left":[0,0,0,0,0,0,0,0,0,0,0,0,0,0,0,0,0,0,0,0,0,0,0,0,0,0,0,0,0,0,0,0,0,0,0,0,0],"id":19,"left_children":[1,-1,3,5,7,9,-1,11,-1,13,15,17,19,21,23,25,27,29,31,33,35,-1,-1,-1,-1,-1,-1,-1,-1,-1,-1,-1,-1,-1,-1,-1,-1],"loss_changes":[1.0290672E5,0E0,3.0887033E4,2.3514688E4,1.5283468E3,1.5608907E0,0E0,7.362731E-1,0E0,2.079608E0,3.54318E0,4.38066E0,5.1370125E0,2.4335642E0,2.371889E0,1.6514144E0,1.8073039E0,2.8989317E0,9.62635E0,2.765271E0,7.950564E0,0E0,0E0,0E0,0E0,0E0,0E0,0E0,0E0,0E0,0E0,0E0,0E0,0E0,0E0,0E0,0E0],"parents":[2147483647,0,0,2,2,3,3,4,4,5,5,7,7,9,9,10,10,11,11,12,12,13,13,14,14,15,15,16,16,17,17,18,18,19,19,20,20],"right_children":[2,-1,4,6,8,10,-1,12,-1,14,16,18,20,22,24,26,28,30,32,34,36,-1,-1,-1,-1,-1,-1,-1,-1,-1,-1,-1,-1,-1,-1,-1,-1],"split_conditions":[1.9912252E1,-3.005442E-1,2.8865603E-1,3.0889494E1,3.2353798E-1,2.6465932E-1,3.00317E-1,7.1425977E2,-3.0035502E-1,2.1982521E-1,1.9955207E0,5.081826E2,1.1998992E1,1.7647289E-1,-1.6916317E0,-1.7253926E-1,4.2246413E0,3.8160767E2,5.754511E2,8.896887E-3,-7.6923066E-1,-4.0469123E-3,1.2511735E-2,-1.5238103E-1,-2.0073041E-2,-3.136388E-2,3.6512114E-2,3.9948064E-1,-2.42116E-2,-3.818711E-4,7.0352685E-3,-1.9310977E-2,-1.3551769E-3,-1.4375572E-3,4.7295187E-3,1.1413295E-2,-5.7824012E-2],"split_indices":[0,0,2,0,2,2,0,0,0,2,3,0,1,2,3,3,3,0,0,3,3,0,0,0,0,0,0,0,0,0,0,0,0,0,0,0,0],"split_type":[0,0,0,0,0,0,0,0,0,0,0,0,0,0,0,0,0,0,0,0,0,0,0,0,0,0,0,0,0,0,0,0,0,0,0,0,0],"sum_hessian":[2.9630766E5,7.237612E4,2.2393155E5,1.1616389E5,1.0776765E5,3.1349111E4,8.481478E4,1.0621736E5,1.5502904E3,3.11856E4,1.6351103E2,7.9429516E4,2.6787844E4,3.0711957E4,4.736438E2,1.6006879E2,3.4422355E0,6.412285E4,1.5306663E4,2.6187016E4,6.008275E2,2.989218E4,8.197768E2,1.1557863E1,4.6208594E2,4.360696E1,1.1646183E2,2.3495362E0,1.0926993E0,5.8966566E4,5.1562812E3,3.475957E3,1.1830706E4,1.3396905E4,1.279011E4,2.7246976E2,3.283578E2],"tree_param":{"num_deleted":"0","num_feature":"4","num_nodes":"37","size_leaf_vector":"1"}},{"base_weights":[3.0015698E-2,-3.004004E-1,3.0463016E-1,6.655039E-1,-1.1681402E-2,-8.807145E-3,3.0023262E-1,-9.730343E-4,-3.001452E-1,-7.7339835E-3,-4.972906E-2,2.049816E-3,-3.6910742E-3,-5.4817214E-3,-2.8876537E-2,-3.6903918E-2,-4.7175467E-1,-2.7779068E-3,9.724738E-3,-6.1345384E-2,-2.581913E-4,-1.7139148E-2,-8.875641E-4,-2.088486E-3,-2.6017783E-2,2.9612867E-2,-1.9338109E-2,-2.8112295E-1,-6.549377E-2,2.2563373E-4,-1.3276887E-2,9.037123E-3,9.2401766E-5,-8.593561E-2,-1.5255306E-2,8.282873E-4,-1.1792272E-2],"categories":[],"categories_nodes":[],"categories_segments":[],"categories_sizes":[],"default_left":[0,0,0,0,0,0,0,0,0,0,0,0,0,0,0,0,0,0,0,0,0,0,0,0,0,0,0,0,0,0,0,0,0,0,0,0,0],"id":20,"left_children":[1,-1,3,5,7,9,-1,11,-1,13,15,17,19,21,23,25,27,29,31,33,35,-1,-1,-1,-1,-1,-1,-1,-1,-1,-1,-1,-1,-1,-1,-1,-1],"loss_changes":[7.2248336E4,0E0,2.2995521E4,2.1273422E4,1.1367294E3,1.3719811E0,0E0,8.7262344E-1,0E0,1.4499475E0,4.3039117E0,1.8631825E0,1.10683E1,3.5864716E0,3.715831E0,2.9060266E0,2.5623755E0,4.5197854E0,3.7298064E0,7.4095306E0,6.222816E0,0E0,0E0,0E0,0E0,0E0,0E0,0E0,0E0,0E0,0E0,0E0,0E0,0E0,0E0,0E0,0E0],"parents":[2147483647,0,0,2,2,3,3,4,4,5,5,7,7,9,9,10,10,11,11,12,12,13,13,14,14,15,15,16,16,17,17,18,18,19,19,20,20],"right_children":[2,-1,4,6,8,10,-1,12,-1,14,16,18,20,22,24,26,28,30,32,34,36,-1,-1,-1,-1,-1,-1,-1,-1,-1,-1,-1,-1,-1,-1,-1,-1],"split_conditions":[1.9912252E1,-3.004004E-1,2.8865603E-1,3.0889494E1,3.2353798E-1,1.1998992E1,3.0023262E-1,-9.716719E-3,-3.001452E-1,6.7893463E-1,5.3238004E-2,-1.6522378E-1,1.332216E-3,-9.04077E0,4.298046E-2,-2.2949367E0,9.612095E-2,-1.9537228E-1,2.482681E2,1.3656003E2,4.453507E0,-1.7139148E-2,-8.875641E-4,-2.088486E-3,-2.6017783E-2,2.9612867E-2,-1.9338109E-2,-2.8112295E-1,-6.549377E-2,2.2563373E-4,-1.3276887E-2,9.037123E-3,9.2401766E-5,-8.593561E-2,-1.5255306E-2,8.282873E-4,-1.1792272E-2],"split_indices":[0,0,2,0,2,1,0,3,0,3,3,3,3,1,2,3,3,3,0,0,1,0,0,0,0,0,0,0,0,0,0,0,0,0,0,0,0],"split_type":[0,0,0,0,0,0,0,0,0,0,0,0,0,0,0,0,0,0,0,0,0,0,0,0,0,0,0,0,0,0,0,0,0,0,0,0,0],"sum_hessian":[2.5509072E5,5.363917E4,2.0145155E5,9.409699E4,1.07354555E5,3.1248916E4,6.2848082E4,1.0620539E5,1.1491643E3,3.0451525E4,7.9739056E2,5.028334E4,5.5922047E4,2.752104E4,2.9304858E3,7.7492834E2,2.2462234E1,3.0867518E4,1.9415824E4,3.141672E3,5.2780375E4,1.2808435E3,2.6240195E4,2.1261594E3,8.0432635E2,1.3043529E2,6.4449304E2,6.9692464E0,1.5492989E1,2.8447475E4,2.4200417E3,6.1314233E3,1.32844E4,1.387681E2,3.0029038E3,4.899333E4,3.7870474E3],"tree_param":{"num_deleted":"0","num_feature":"4","num_nodes":"37","size_leaf_vector":"1"}},{"base_weights":[2.5285525E-2,-3.0029312E-1,2.46049E-1,5.9676796E-1,-8.6459275E-3,-6.2170094E-3,3.0016935E-1,-6.8624417E-4,-2.999489E-1,-2.0990658E-3,-1.6387079E-2,1.2232318E-3,-5.7790405E-3,-2.332317E-1,-1.4025058E-3,-1.324927E-1,-1.1913226E-2,-4.6438636E-4,2.9942708E-2,-1.3736987E-2,1.047828E-2,-1.2171941E-2,-1.515583E-1,2.6796594E-2,-9.81895E-4,-5.0866667E-2,6.033614E-2,-4.232125E-4,-1.4785463E-2,-7.174453E-3,3.1708542E-4,1.2567226E-2,-5.396901E-2,-3.7789953E-4,-9.329127E-3,3.6537824E-3,-5.1167443E-2],"categories":[],"categories_nodes":[],"categories_segments":[],"categories_sizes":[],"default_left":[0,0,0,0,0,0,0,0,0,0,0,0,0,0,0,0,0,0,0,0,0,0,0,0,0,0,0,0,0,0,0,0,0,0,0,0,0],"id":21,"left_children":[1,-1,3,5,7,9,-1,11,-1,13,15,17,19,21,23,25,27,29,31,33,35,-1,-1,-1,-1,-1,-1,-1,-1,-1,-1,-1,-1,-1,-1,-1,-1],"loss_changes":[5.0870902E4,0E0,1.6506168E4,1.8927951E4,8.4455316E2,1.3057752E0,0E0,1.032717E0,0E0,3.5729768E0,4.6662188E0,3.7435365E0,3.7467284E0,3.473308E0,3.7555523E0,4.1554427E0,3.3965569E0,2.6026654E0,1.0755208E1,4.211382E0,2.9329174E0,0E0,0E0,0E0,0E0,0E0,0E0,0E0,0E0,0E0,0E0,0E0,0E0,0E0,0E0,0E0,0E0],"parents":[2147483647,0,0,2,2,3,3,4,4,5,5,7,7,9,9,10,10,11,11,12,12,13,13,14,14,15,15,16,16,17,17,18,18,19,19,20,20],"right_children":[2,-1,4,6,8,10,-1,12,-1,14,16,18,20,22,24,26,28,30,32,34,36,-1,-1,-1,-1,-1,-1,-1,-1,-1,-1,-1,-1,-1,-1,-1,-1],"split_conditions":[1.9912252E1,-3.0029312E-1,2.8865603E-1,3.0889494E1,3.2353798E-1,3.2101893E0,3.0016935E-1,1.9879866E-1,-2.999489E-1,-2.4247383E-1,3.4051871E0,1.4845616E-1,-1.6452227E0,2.0685294E-1,-1.8677229E-1,1.3413574E-1,5.9853125E-2,-5.9050713E0,5.4136763E0,-5.0637608E0,1.9020375E3,-1.2171941E-2,-1.515583E-1,2.6796594E-2,-9.81895E-4,-5.0866667E-2,6.033614E-2,-4.232125E-4,-1.4785463E-2,-7.174453E-3,3.1708542E-4,1.2567226E-2,-5.396901E-2,-3.7789953E-4,-9.329127E-3,3.6537824E-3,-5.1167443E-2],"split_indices":[0,0,2,0,2,1,0,3,0,2,1,3,1,3,2,2,2,1,1,1,0,0,0,0,0,0,0,0,0,0,0,0,0,0,0,0,0],"split_type":[0,0,0,0,0,0,0,0,0,0,0,0,0,0,0,0,0,0,0,0,0,0,0,0,0,0,0,0,0,0,0,0,0,0,0,0,0],"sum_hessian":[2.2453275E5,3.9748848E4,1.847839E5,7.7737195E4,1.0704671E5,3.1178965E4,4.6558234E4,1.06194914E5,8.517957E2,2.2193744E4,8.985221E3,7.723677E4,2.8958137E4,6.568086E1,2.2128062E4,3.3231638E2,8.652904E3,7.2951E4,4.285774E3,1.9441629E4,9.516508E3,3.911848E1,2.656238E1,4.4605658E2,2.1682008E4,2.995316E2,3.2784782E1,6.755461E3,1.8974429E3,4.443442E3,6.850756E4,4.0556494E3,2.301242E2,1.1312213E4,8.129416E3,9.428848E3,8.765949E1],"tree_param":{"num_deleted":"0","num_feature":"4","num_nodes":"37","size_leaf_vector":"1"}},{"base_weights":[2.09092E-2,-3.0021247E-1,1.9539839E-1,5.238278E-1,-6.3966834E-3,-4.393989E-3,3.0012155E-1,-4.844384E-4,-2.9974827E-1,-4.6010885E-2,-3.7210996E-3,-5.4122694E-3,1.1798283E-3,-3.5985494E-1,-2.0759173E-2,-4.144387E-3,7.500989E-2,-1.7760363E-3,-5.256874E-2,1.834733E-2,-5.7691045E-4,-1.5227987E-1,1.7798758E-1,1.665697E-2,-2.8086133E-2,-1.1097819E-3,-2.8432434E-2,1.635115E-2,2.1550529E-1,-3.0584899E-3,4.2875963E-3,-2.8477676E-2,2.4961418E-2,-3.732381E-2,7.6506273E-3,-9.820058E-3,3.737195E-4],"categories":[],"categories_nodes":[],"categories_segments":[],"categories_sizes":[],"default_left":[0,0,0,0,0,0,0,0,0,0,0,0,0,0,0,0,0,0,0,0,0,0,0,0,0,0,0,0,0,0,0,0,0,0,0,0,0],"id":22,"left_children":[1,-1,3,5,7,9,-1,11,-1,13,15,17,19,21,23,25,27,29,31,33,35,-1,-1,-1,-1,-1,-1,-1,-1,-1,-1,-1,-1,-1,-1,-1,-1],"loss_changes":[3.5992125E4,0E0,1.142935E4,1.6522262E4,6.269793E2,8.7159723E-1,0E0,8.708882E-1,0E0,3.9173841E0,1.021294E0,4.5969186E0,2.3940504E0,5.4860168E0,2.558698E0,1.2289765E0,2.1228724E0,3.3672762E0,1.1045218E1,7.5299554E0,4.2207294E0,0E0,0E0,0E0,0E0,0E0,0E0,0E0,0E0,0E0,0E0,0E0,0E0,0E0,0E0,0E0,0E0],"parents":[2147483647,0,0,2,2,3,3,4,4,5,5,7,7,9,9,10,10,11,11,12,12,13,13,14,14,15,15,16,16,17,17,18,18,19,19,20,20],"right_children":[2,-1,4,6,8,10,-1,12,-1,14,16,18,20,22,24,26,28,30,32,34,36,-1,-1,-1,-1,-1,-1,-1,-1,-1,-1,-1,-1,-1,-1,-1,-1],"split_conditions":[1.9912252E1,-3.0021247E-1,2.8865603E-1,3.0889494E1,3.2353798E-1,-1.3698187E1,3.0012155E-1,2.3240561E2,-2.9974827E-1,-1.501725E-1,2.6465932E-1,2.269002E2,2.534223E2,4.2246413E0,-2.9522544E-2,2.4683155E-1,1.7410879E0,2.4604425E0,2.4197176E-1,-1.1430187E0,2.6381558E2,-1.5227987E-1,1.7798758E-1,1.665697E-2,-2.8086133E-2,-1.1097819E-3,-2.8432434E-2,1.635115E-2,2.1550529E-1,-3.0584899E-3,4.2875963E-3,-2.8477676E-2,2.4961418E-2,-3.732381E-2,7.6506273E-3,-9.820058E-3,3.737195E-4],"split_indices":[0,0,2,0,2,1,0,0,0,2,2,0,0,3,2,2,3,1,3,3,0,0,0,0,0,0,0,0,0,0,0,0,0,0,0,0,0],"split_type":[0,0,0,0,0,0,0,0,0,0,0,0,0,0,0,0,0,0,0,0,0,0,0,0,0,0,0,0,0,0,0,0,0,0,0,0,0],"sum_hessian":[2.0190456E5,2.9453344E4,1.7245122E5,6.563161E4,1.0681961E5,3.1129615E4,3.4501996E4,1.0618823E5,6.3138617E2,4.9424356E2,3.0635373E4,2.6808125E4,7.93801E4,3.5818474E1,4.5842508E2,3.0472488E4,1.6288423E2,2.4889902E4,1.9182214E3,7.3679844E3,7.201212E4,3.1416187E1,4.4022856E0,2.2407098E2,2.3435408E2,3.0324596E4,1.4789276E2,1.5890399E2,3.9802377E0,1.6332675E4,8.557229E3,1.4623251E3,4.5589633E2,3.5085867E2,7.0171255E3,3.861809E3,6.8150305E4],"tree_param":{"num_deleted":"0","num_feature":"4","num_nodes":"37","size_leaf_vector":"1"}},{"base_weights":[1.6921002E-2,-3.0015117E-1,1.5288918E-1,4.4960144E-1,-4.7324793E-3,-3.0927942E-3,3.0008474E-1,-3.4310002E-4,-2.995253E-1,-7.66561E-3,2.4643603E-3,-1.3017505E-2,1.780063E-4,1.2736127E-3,-6.855305E-2,8.223816E-2,-8.562775E-4,9.24531E-1,-1.3964664E-2,4.9286664E-2,-9.691376E-5,-1.2378694E-4,6.919833E-2,-2.5989732E-2,3.0423274E-2,1.7297757E-1,1.6949065E-2,-1.03258884E-4,-1.299596E-1,3.6162728E-1,2.7421182E-2,-8.6169116E-2,-3.4985342E-3,-1.919812E-1,1.893645E-2,-1.3355546E-4,1.5033559E-2],"categories":[],"categories_nodes":[],"categories_segments":[],"categories_sizes":[],"default_left":[0,0,0,0,0,0,0,0,0,0,0,0,0,0,0,0,0,0,0,0,0,0,0,0,0,0,0,0,0,0,0,0,0,0,0,0,0],"id":23,"left_children":[1,-1,3,5,7,9,-1,11,-1,13,15,17,19,21,23,25,27,29,31,33,35,-1,-1,-1,-1,-1,-1,-1,-1,-1,-1,-1,-1,-1,-1,-1,-1],"loss_changes":[2.5610654E4,0E0,7.6376055E3,1.4123805E4,4.6518082E2,7.902123E-1,0E0,7.013188E-1,0E0,9.284944E0,3.7186565E0,3.7366416E0,1.3769927E0,5.7541084E0,6.7195225E0,7.106164E0,2.9837418E0,8.836882E-1,2.6334815E0,5.4544816E0,1.773568E0,0E0,0E0,0E0,0E0,0E0,0E0,0E0,0E0,0E0,0E0,0E0,0E0,0E0,0E0,0E0,0E0],"parents":[2147483647,0,0,2,2,3,3,4,4,5,5,7,7,9,9,10,10,11,11,12,12,13,13,14,14,15,15,16,16,17,17,18,18,19,19,20,20],"right_children":[2,-1,4,6,8,10,-1,12,-1,14,16,18,20,22,24,26,28,30,32,34,36,-1,-1,-1,-1,-1,-1,-1,-1,-1,-1,-1,-1,-1,-1,-1,-1],"split_conditions":[1.9912252E1,-3.0015117E-1,2.8865603E-1,3.0889494E1,3.2353798E-1,2.0374011E-2,3.0008474E-1,-1.0130911E1,-2.995253E-1,0E0,3.229128E-2,-1.5072751E0,-9.725918E0,-2.1612868E-3,7.148637E-2,-1.6291514E-1,1.2788467E1,1.093766E3,-4.5353666E-1,6.2930065E1,2.9594054E0,-1.2378694E-4,6.919833E-2,-2.5989732E-2,3.0423274E-2,1.7297757E-1,1.6949065E-2,-1.03258884E-4,-1.299596E-1,3.6162728E-1,2.7421182E-2,-8.6169116E-2,-3.4985342E-3,-1.919812E-1,1.893645E-2,-1.3355546E-4,1.5033559E-2],"split_indices":[0,0,2,0,2,3,0,1,0,3,3,3,1,3,2,2,1,0,3,0,3,0,0,0,0,0,0,0,0,0,0,0,0,0,0,0,0],"split_type":[0,0,0,0,0,0,0,0,0,0,0,0,0,0,0,0,0,0,0,0,0,0,0,0,0,0,0,0,0,0,0,0,0,0,0,0,0],"sum_hessian":[1.851297E5,2.1823336E4,1.6330638E5,5.665509E4,1.0665129E5,3.1094475E4,2.5560613E4,1.0618324E5,4.6804013E2,1.705777E4,1.4036705E4,4.1923545E3,1.0199089E5,1.4874885E4,2.182885E3,5.599881E2,1.3476717E4,3.2469442E0,4.1891074E3,5.667943E2,1.0142409E5,1.4767328E4,1.0755696E2,1.9734552E3,2.0942978E2,2.665659E1,5.333315E2,1.3461773E4,1.4943792E1,2.0940554E0,1.1528889E0,3.3973763E1,4.155134E3,1.0262872E1,5.5653143E2,1.0072641E5,6.9769336E2],"tree_param":{"num_deleted":"0","num_feature":"4","num_nodes":"37","size_leaf_vector":"1"}},{"base_weights":[1.3474459E-2,-3.001036E-1,1.1820154E-1,3.774331E-1,-3.4983698E-3,-2.207542E-3,3.0005562E-1,-2.4050205E-4,-2.9926008E-1,-2.1171678E-2,-7.1370084E-4,1.297553E-3,-4.344051E-3,-1.1534437E-2,-2.5904962E-1,5.0360527E-2,-3.085884E-3,1.0151547E-2,-2.109658E-3,-1.2662173E-2,5.778254E-3,-6.372133E-2,-4.5179864E-4,8.6366296E-2,-1.1258281E-1,1.800702E-2,-1.04459085E-1,4.2621046E-4,-4.309421E-3,2.050524E-3,1.8014954E-2,-1.3784763E-2,5.7092457E-5,-2.4950919E-3,-3.0945418E-2,-1.1505198E-3,1.5426681E-2],"categories":[],"categories_nodes":[],"categories_segments":[],"categories_sizes":[],"default_left":[0,0,0,0,0,0,0,0,0,0,0,0,0,0,0,0,0,0,0,0,0,0,0,0,0,0,0,0,0,0,0,0,0,0,0,0,0],"id":24,"left_children":[1,-1,3,5,7,9,-1,11,-1,13,15,17,19,21,23,25,27,29,31,33,35,-1,-1,-1,-1,-1,-1,-1,-1,-1,-1,-1,-1,-1,-1,-1,-1],"loss_changes":[1.833718E4,0E0,4.9385244E3,1.1823623E4,3.44984E2,8.80205E-1,0E0,6.701657E-1,0E0,5.1981187E0,3.4898689E0,2.3299723E0,2.437461E0,4.394065E0,5.72049E0,4.944536E0,1.3991258E0,3.5513144E0,5.6235323E0,6.247179E0,5.7301927E0,0E0,0E0,0E0,0E0,0E0,0E0,0E0,0E0,0E0,0E0,0E0,0E0,0E0,0E0,0E0,0E0],"parents":[2147483647,0,0,2,2,3,3,4,4,5,5,7,7,9,9,10,10,11,11,12,12,13,13,14,14,15,15,16,16,17,17,18,18,19,19,20,20],"right_children":[2,-1,4,6,8,10,-1,12,-1,14,16,18,20,22,24,26,28,30,32,34,36,-1,-1,-1,-1,-1,-1,-1,-1,-1,-1,-1,-1,-1,-1,-1,-1],"split_conditions":[1.9912252E1,-3.001036E-1,2.8865603E-1,3.0889494E1,3.2353798E-1,-1.4296927E-1,3.0005562E-1,1.9879866E-1,-2.9926008E-1,1.4030025E0,-1.2251473E-1,-1.2953892E0,-3.1419678E0,-1.0130911E1,-2.0565648E-1,1.2788467E1,3.2101893E0,-1.5574989E0,-7.812147E-1,-3.4482746E0,8.022902E2,-6.372133E-2,-4.5179864E-4,8.6366296E-2,-1.1258281E-1,1.800702E-2,-1.04459085E-1,4.2621046E-4,-4.309421E-3,2.050524E-3,1.8014954E-2,-1.3784763E-2,5.7092457E-5,-2.4950919E-3,-3.0945418E-2,-1.1505198E-3,1.5426681E-2],"split_indices":[0,0,2,0,2,2,0,3,0,3,2,1,1,1,2,1,1,1,1,1,0,0,0,0,0,0,0,0,0,0,0,0,0,0,0,0,0],"split_type":[0,0,0,0,0,0,0,0,0,0,0,0,0,0,0,0,0,0,0,0,0,0,0,0,0,0,0,0,0,0,0,0,0,0,0,0,0],"sum_hessian":[1.72706E5,1.6169282E4,1.5653672E5,5.0009652E4,1.0652707E5,3.1069896E4,1.8939756E4,1.0618008E5,3.4699615E2,2.2677615E3,2.8802135E4,7.723299E4,2.8947086E4,2.1804717E3,8.7289795E1,1.2774656E3,2.752467E4,2.1461377E4,5.5771613E4,1.5889474E4,1.3057612E4,1.0272411E2,2.0777476E3,1.5039602E1,7.22502E1,1.2480564E3,2.9409233E1,1.9667273E4,7.857395E3,2.0124922E4,1.3364565E3,2.7791619E3,5.2992453E4,1.5162479E4,7.2699506E2,1.0786688E4,2.2709238E3],"tree_param":{"num_deleted":"0","num_feature":"4","num_nodes":"37","size_leaf_vector":"1"}},{"base_weights":[1.0541086E-2,-3.0006546E-1,9.0463966E-2,3.1014806E-1,-2.5890016E-3,-1.5831927E-3,3.0003154E-1,-1.711949E-4,-2.9892907E-1,1.6055444E-7,-1.4470261E-2,6.0915796E-4,-8.994278E-3,-7.736081E-2,9.41701E-4,3.858468E-2,-2.9183336E-2,-4.4984068E-4,2.1224832E-2,-1.5128033E-2,2.5373617E-2,-1.0245941E-2,-1.17050864E-1,3.3558514E-2,-1.1166763E-4,-7.442681E-3,4.8630986E-2,1.2656184E-1,-9.87382E-3,9.3143004E-5,-1.039315E-2,7.0725875E-3,-1.11359976E-1,-1.6692561E-1,-4.1234274E-3,-3.2702524E-2,1.3952431E-2],"categories":[],"categories_nodes":[],"categories_segments":[],"categories_sizes":[],"default_left":[0,0,0,0,0,0,0,0,0,0,0,0,0,0,0,0,0,0,0,0,0,0,0,0,0,0,0,0,0,0,0,0,0,0,0,0,0],"id":25,"left_children":[1,-1,3,5,7,9,-1,11,-1,13,15,17,19,21,23,25,27,29,31,33,35,-1,-1,-1,-1,-1,-1,-1,-1,-1,-1,-1,-1,-1,-1,-1,-1],"loss_changes":[1.3207822E4,0E0,3.0973516E3,9.6965E3,2.5575441E2,6.336477E-1,0E0,7.3105204E-1,0E0,2.0145645E0,2.6535437E0,2.129739E0,1.819166E0,4.481609E0,3.9824655E0,5.7839518E0,4.4897356E0,2.4122806E0,4.405033E0,5.4745874E0,3.717104E0,0E0,0E0,0E0,0E0,0E0,0E0,0E0,0E0,0E0,0E0,0E0,0E0,0E0,0E0,0E0,0E0],"parents":[2147483647,0,0,2,2,3,3,4,4,5,5,7,7,9,9,10,10,11,11,12,12,13,13,14,14,15,15,16,16,17,17,18,18,19,19,20,20],"right_children":[2,-1,4,6,8,10,-1,12,-1,14,16,18,20,22,24,26,28,30,32,34,36,-1,-1,-1,-1,-1,-1,-1,-1,-1,-1,-1,-1,-1,-1,-1,-1],"split_conditions":[1.9912252E1,-3.0006546E-1,2.8865603E-1,3.0889494E1,3.2353798E-1,5.8776647E-1,3.0003154E-1,1.1187849E3,-2.9892907E-1,-2.0565648E-1,-1.0130911E1,9.395929E2,5.6786923E0,2.932581E-1,-1.8677229E-1,-1.176817E1,-2.1973534E-1,8.8528827E2,1.5699871E1,-4.119595E0,1.1774121E3,-1.0245941E-2,-1.17050864E-1,3.3558514E-2,-1.1166763E-4,-7.442681E-3,4.8630986E-2,1.2656184E-1,-9.87382E-3,9.3143004E-5,-1.039315E-2,7.0725875E-3,-1.11359976E-1,-1.6692561E-1,-4.1234274E-3,-3.2702524E-2,1.3952431E-2],"split_indices":[0,0,2,0,2,3,0,0,0,2,1,0,1,3,2,1,2,0,1,3,0,0,0,0,0,0,0,0,0,0,0,0,0,0,0,0,0],"split_type":[0,0,0,0,0,0,0,0,0,0,0,0,0,0,0,0,0,0,0,0,0,0,0,0,0,0,0,0,0,0,0,0,0,0,0,0,0],"sum_hessian":[1.6349586E5,1.1979787E4,1.5151606E5,4.508197E4,1.0643409E5,3.1052885E4,1.4029085E4,1.0617679E5,2.5730563E2,2.7655969E4,3.3969155E3,9.754997E4,8.626824E3,3.315704E2,2.7324398E4,7.3715015E2,2.6597654E3,9.278472E4,4.7652446E3,7.3208135E3,1.3060107E3,2.9230417E2,3.9266235E1,3.1890265E2,2.7005496E4,4.8766455E2,2.494856E2,2.089155E1,2.6388738E3,9.076746E4,2.0172606E3,4.737807E3,2.7437555E1,1.7637964E1,7.3031753E3,1.7692007E2,1.1290907E3],"tree_param":{"num_deleted":"0","num_feature":"4","num_nodes":"37","size_leaf_vector":"1"}},{"base_weights":[8.153142E-3,-3.0003324E-1,6.87078E-2,2.500131E-1,-1.9193669E-3,-1.1356983E-3,3.0001035E-1,-1.2491779E-4,-2.9850328E-1,-5.9435163E-3,3.408329E-3,-4.360165E-4,1.9710299E-2,-2.274398E-2,4.202941E-3,2.3848407E-1,4.668756E-4,-9.06877E-3,6.594949E-4,4.5021918E-1,1.2658162E-2,-1.068758E-2,9.299016E-3,4.0960168E-3,-1.5766535E-2,-1.268353E-1,7.9252735E-2,-3.6284875E-4,4.8601117E-2,-1.0529954E-2,1.5857497E-3,1.536596E-2,1.0158722E-4,1.88899E-1,2.354337E-3,6.911714E-3,-7.4802496E-2],"categories":[],"categories_nodes":[],"categories_segments":[],"categories_sizes":[],"default_left":[0,0,0,0,0,0,0,0,0,0,0,0,0,0,0,0,0,0,0,0,0,0,0,0,0,0,0,0,0,0,0,0,0,0,0,0,0],"id":26,"left_children":[1,-1,3,5,7,9,-1,11,-1,13,15,17,19,21,23,25,27,29,31,33,35,-1,-1,-1,-1,-1,-1,-1,-1,-1,-1,-1,-1,-1,-1,-1,-1],"loss_changes":[9.565937E3,0E0,1.8925964E3,7.8049136E3,1.8955103E2,6.7817986E-1,0E0,6.5518945E-1,0E0,2.5712771E0,1.1035104E1,9.8864496E-1,4.9720984E0,3.9327724E0,5.0453334E0,3.4623556E0,4.26874E0,4.39903E0,1.504961E0,2.0904117E0,4.396003E0,0E0,0E0,0E0,0E0,0E0,0E0,0E0,0E0,0E0,0E0,0E0,0E0,0E0,0E0,0E0,0E0],"parents":[2147483647,0,0,2,2,3,3,4,4,5,5,7,7,9,9,10,10,11,11,12,12,13,13,14,14,15,15,16,16,17,17,18,18,19,19,20,20],"right_children":[2,-1,4,6,8,10,-1,12,-1,14,16,18,20,22,24,26,28,30,32,34,36,-1,-1,-1,-1,-1,-1,-1,-1,-1,-1,-1,-1,-1,-1,-1,-1],"split_conditions":[1.9912252E1,-3.0003324E-1,2.8865603E-1,3.0889494E1,3.2353798E-1,-2.0602379E-2,3.0001035E-1,1.2788467E1,-2.9850328E-1,-8.252941E-2,-1.9088522E-2,-5.6656194E-1,8.244548E1,8.509626E0,-3.6909834E-2,-1.176817E1,1.3870167E1,2.6733124E2,-5.410875E-1,-3.5437062E-1,1.6527355E-2,-1.068758E-2,9.299016E-3,4.0960168E-3,-1.5766535E-2,-1.268353E-1,7.9252735E-2,-3.6284875E-4,4.8601117E-2,-1.0529954E-2,1.5857497E-3,1.536596E-2,1.0158722E-4,1.88899E-1,2.354337E-3,6.911714E-3,-7.4802496E-2],"split_indices":[0,0,2,0,2,2,0,1,0,3,2,3,0,1,2,1,1,0,3,3,3,0,0,0,0,0,0,0,0,0,0,0,0,0,0,0,0],"split_type":[0,0,0,0,0,0,0,0,0,0,0,0,0,0,0,0,0,0,0,0,0,0,0,0,0,0,0,0,0,0,0,0,0,0,0,0,0],"sum_hessian":[1.5667505E5,8.875655E3,1.4779939E5,4.1433613E4,1.0636577E5,3.104052E4,1.0393093E4,1.0617492E5,1.9085077E2,1.5082325E4,1.5958195E4,1.04536336E5,1.6385865E3,5.678555E3,9.4037705E3,1.9622426E2,1.5761971E4,1.177114E4,9.2765195E4,2.5396164E1,1.6131904E3,4.580885E3,1.0976705E3,8.062149E3,1.3416213E3,6.760574E0,1.8946368E2,1.5601061E4,1.6090971E2,4.1833965E3,7.5877437E3,5.84002E2,9.2181195E4,1.7766111E1,7.630051E0,1.5525863E3,6.0604084E1],"tree_param":{"num_deleted":"0","num_feature":"4","num_nodes":"37","size_leaf_vector":"1"}},{"base_weights":[6.2475353E-3,-3.0000407E-1,5.1873423E-2,1.9815104E-1,-1.4199833E-3,-8.338908E-4,2.9999012E-1,-8.78642E-5,-2.9794604E-1,6.713328E-4,-2.6457014E-2,6.803288E-3,-9.6536655E-4,-1.7257543E-4,1.3420178E-1,-3.0747086E-2,6.308745E-1,-2.137467E-1,7.934693E-3,-7.287975E-2,-4.993963E-4,-7.839216E-3,6.0516904E-4,1.3753766E-1,1.8247738E-2,2.592046E-3,-2.7474971E-2,3.582651E-1,-4.6826303E-2,2.6466098E-1,-7.78261E-2,3.2633415E-3,-1.9522492E-2,-6.367426E-3,-4.896004E-2,-5.451294E-4,3.7578393E-3],"categories":[],"categories_nodes":[],"categories_segments":[],"categories_sizes":[],"default_left":[0,0,0,0,0,0,0,0,0,0,0,0,0,0,0,0,0,0,0,0,0,0,0,0,0,0,0,0,0,0,0,0,0,0,0,0,0],"id":27,"left_children":[1,-1,3,5,7,9,-1,11,-1,13,15,17,19,21,23,25,27,29,31,33,35,-1,-1,-1,-1,-1,-1,-1,-1,-1,-1,-1,-1,-1,-1,-1,-1],"loss_changes":[6.9613506E3,0E0,1.1307437E3,6.179932E3,1.4045428E2,1.1969316E0,0E0,6.420411E-1,0E0,3.3031752E0,4.875222E0,2.9943085E0,3.1560018E0,1.6558645E0,4.3521557E0,4.1023397E0,5.1568904E0,3.2945228E0,2.5647507E0,2.8253152E0,1.606152E0,0E0,0E0,0E0,0E0,0E0,0E0,0E0,0E0,0E0,0E0,0E0,0E0,0E0,0E0,0E0,0E0],"parents":[2147483647,0,0,2,2,3,3,4,4,5,5,7,7,9,9,10,10,11,11,12,12,13,13,14,14,15,15,16,16,17,17,18,18,19,19,20,20],"right_children":[2,-1,4,6,8,10,-1,12,-1,14,16,18,20,22,24,26,28,30,32,34,36,-1,-1,-1,-1,-1,-1,-1,-1,-1,-1,-1,-1,-1,-1,-1,-1],"split_conditions":[1.9912252E1,-3.0000407E-1,2.8865603E-1,3.0889494E1,3.2353798E-1,9.660328E0,2.9999012E-1,1.7821289E2,-2.9794604E-1,9.336706E0,4.0065047E-1,-4.119595E0,1.8143375E2,-1.396497E-1,-1.02207944E-1,-8.325362E-3,1.0854086E1,3.0920124E-1,1.4030025E0,2.369296E0,7.5296557E-1,-7.839216E-3,6.0516904E-4,1.3753766E-1,1.8247738E-2,2.592046E-3,-2.7474971E-2,3.582651E-1,-4.6826303E-2,2.6466098E-1,-7.78261E-2,3.2633415E-3,-1.9522492E-2,-6.367426E-3,-4.896004E-2,-5.451294E-4,3.7578393E-3],"split_indices":[0,0,2,0,2,1,0,0,0,1,3,3,0,2,2,2,1,1,3,1,3,0,0,0,0,0,0,0,0,0,0,0,0,0,0,0,0],"split_type":[0,0,0,0,0,0,0,0,0,0,0,0,0,0,0,0,0,0,0,0,0,0,0,0,0,0,0,0,0,0,0,0,0,0,0,0,0],"sum_hessian":[1.5162311E5,6.5757876E3,1.4504733E5,3.8732684E4,1.0631465E5,3.1032432E4,7.7002524E3,1.0617303E5,1.4161395E2,2.9311508E4,1.7209231E3,1.199193E4,9.41811E4,2.9128416E4,1.8309196E2,1.7107114E3,1.0211732E1,6.0244644E1,1.1931685E4,6.0531866E2,9.357578E4,2.2652314E3,2.6863184E4,3.2817875E1,1.502741E2,1.038932E3,6.7177936E2,5.649831E0,4.5619016E0,1.6774889E0,5.8567154E1,1.1470159E4,4.615256E2,3.8587082E2,2.1944781E2,8.497983E4,8.595955E3],"tree_param":{"num_deleted":"0","num_feature":"4","num_nodes":"37","size_leaf_vector":"1"}},{"base_weights":[4.777797E-3,-2.9997522E-1,3.9010547E-2,1.5490888E-1,-1.0513618E-3,-5.994766E-4,2.9996902E-1,-6.2056766E-5,-2.972102E-1,9.470666E-3,-3.3341055E-3,1.8441938E-2,-3.9065498E-4,-4.2686006E-3,6.0362607E-2,1.5458306E-3,-3.2932088E-2,-5.2172077E-1,2.0451799E-2,-9.672403E-2,-3.250394E-4,2.5175912E-3,-2.546177E-2,2.0274144E-2,-1.23239346E-1,-3.0286467E-2,7.978074E-4,-6.8064495E-3,-3.680382E-2,1.7242515E-1,-2.7809194E-1,8.145157E-2,4.236478E-3,-1.8423715E-1,-1.7216668E-2,9.867073E-3,-1.5216302E-4],"categories":[],"categories_nodes":[],"categories_segments":[],"categories_sizes":[],"default_left":[0,0,0,0,0,0,0,0,0,0,0,0,0,0,0,0,0,0,0,0,0,0,0,0,0,0,0,0,0,0,0,0,0,0,0,0,0],"id":28,"left_children":[1,-1,3,5,7,9,-1,11,-1,13,15,17,19,21,23,25,27,29,31,33,35,-1,-1,-1,-1,-1,-1,-1,-1,-1,-1,-1,-1,-1,-1,-1,-1],"loss_changes":[5.0863213E3,0E0,6.6402606E2,4.8272324E3,1.0405303E2,8.5446244E-1,0E0,6.455788E-1,0E0,4.633651E0,3.5245402E0,2.0219119E0,6.593808E-1,5.326462E0,4.818541E0,2.3913176E0,3.1725295E0,3.6011205E0,2.9309156E0,1.4098433E0,6.308257E-1,0E0,0E0,0E0,0E0,0E0,0E0,0E0,0E0,0E0,0E0,0E0,0E0,0E0,0E0,0E0,0E0],"parents":[2147483647,0,0,2,2,3,3,4,4,5,5,7,7,9,9,10,10,11,11,12,12,13,13,14,14,15,15,16,16,17,17,18,18,19,19,20,20],"right_children":[2,-1,4,6,8,10,-1,12,-1,14,16,18,20,22,24,26,28,30,32,34,36,-1,-1,-1,-1,-1,-1,-1,-1,-1,-1,-1,-1,-1,-1,-1,-1],"split_conditions":[1.9912252E1,-2.9997522E-1,2.8865603E-1,3.0889494E1,3.2353798E-1,-2.6879868E-1,2.9996902E-1,-2.2949367E0,-2.972102E-1,-3.6891502E-1,4.453507E0,-6.5495234E0,3.0889494E1,-4.348656E-1,2.3202968E-1,-2.4851312E-1,1.18396945E-1,-1.0130911E1,-1.3832846E0,-7.6923066E-1,4.5108734E1,2.5175912E-3,-2.546177E-2,2.0274144E-2,-1.23239346E-1,-3.0286467E-2,7.978074E-4,-6.8064495E-3,-3.680382E-2,1.7242515E-1,-2.7809194E-1,8.145157E-2,4.236478E-3,-1.8423715E-1,-1.7216668E-2,9.867073E-3,-1.5216302E-4],"split_indices":[0,0,2,0,2,3,0,3,0,3,1,1,0,3,2,3,2,1,1,3,0,0,0,0,0,0,0,0,0,0,0,0,0,0,0,0,0],"split_type":[0,0,0,0,0,0,0,0,0,0,0,0,0,0,0,0,0,0,0,0,0,0,0,0,0,0,0,0,0,0,0,0,0,0,0,0,0],"sum_hessian":[1.4788408E5,4.8718613E3,1.4301222E5,3.673518E4,1.0627704E5,3.1026227E4,5.7089507E3,1.0617191E5,1.05134926E2,6.6255366E3,2.4400691E4,1.8515659E3,1.0432034E5,5.2178047E3,1.4077316E3,2.0947879E4,3.4528115E3,5.905277E0,1.8456606E3,7.00047E1,1.04250336E5,4.510267E3,7.075377E2,1.387335E3,2.0396503E1,2.2416022E2,2.0723719E4,3.1002014E3,3.5261005E2,1.4807179E0,4.424559E0,4.4362713E1,1.801298E3,3.913633E0,6.609107E1,5.6766724E2,1.0368267E5],"tree_param":{"num_deleted":"0","num_feature":"4","num_nodes":"37","size_leaf_vector":"1"}},{"base_weights":[3.602682E-3,-2.9994416E-1,2.9205529E-2,1.19585626E-1,-7.8215974E-4,-4.564491E-4,2.9994506E-1,-4.6980414E-5,-2.9623494E-1,4.395827E-3,-4.9032397E-3,2.0568073E-2,-3.0391733E-4,-1.2843747E-2,1.6521642E-2,-6.929285E-2,1.2026415E-3,-1.3592339E-1,4.337876E-2,-2.1481186E-2,2.945453E-4,-1.9482771E-3,-6.2404603E-2,-9.259873E-3,8.974732E-3,-1.6429953E-2,-1.01011895E-1,4.7079436E-2,-7.651313E-6,-2.6665467E-1,-3.7210476E-2,6.35623E-2,5.8329958E-3,2.4291545E-2,-1.1335042E-2,7.3968917E-3,4.980553E-6],"categories":[],"categories_nodes":[],"categories_segments":[],"categories_sizes":[],"default_left":[0,0,0,0,0,0,0,0,0,0,0,0,0,0,0,0,0,0,0,0,0,0,0,0,0,0,0,0,0,0,0,0,0,0,0,0,0],"id":29,"left_children":[1,-1,3,5,7,9,-1,11,-1,13,15,17,19,21,23,25,27,29,31,33,35,-1,-1,-1,-1,-1,-1,-1,-1,-1,-1,-1,-1,-1,-1,-1,-1],"loss_changes":[3.727949E3,0E0,3.835073E2,3.724953E3,7.70705E1,6.6940475E-1,0E0,5.6236815E-1,0E0,3.101505E0,6.3646026E0,4.67143E0,1.3290418E0,7.590993E0,5.5293274E0,5.428255E0,2.828162E0,1.3802617E0,4.5994616E0,4.8166504E0,6.905511E-1,0E0,0E0,0E0,0E0,0E0,0E0,0E0,0E0,0E0,0E0,0E0,0E0,0E0,0E0,0E0,0E0],"parents":[2147483647,0,0,2,2,3,3,4,4,5,5,7,7,9,9,10,10,11,11,12,12,13,13,14,14,15,15,16,16,17,17,18,18,19,19,20,20],"right_children":[2,-1,4,6,8,10,-1,12,-1,14,16,18,20,22,24,26,28,30,32,34,36,-1,-1,-1,-1,-1,-1,-1,-1,-1,-1,-1,-1,-1,-1,-1,-1],"split_conditions":[1.9912252E1,-2.9994416E-1,2.8865603E-1,3.0889494E1,3.2353798E-1,0E0,2.9994506E-1,-1.3698187E1,-2.9623494E-1,-4.131126E-2,5.090311E-3,2.0812256E2,-1.0130911E1,-4.426658E-2,-9.5064926E-1,2.6434002E0,-2.1973534E-1,-2.907729E-1,2.6381558E2,1.984565E2,-9.366502E0,-1.9482771E-3,-6.2404603E-2,-9.259873E-3,8.974732E-3,-1.6429953E-2,-1.01011895E-1,4.7079436E-2,-7.651313E-6,-2.6665467E-1,-3.7210476E-2,6.35623E-2,5.8329958E-3,2.4291545E-2,-1.1335042E-2,7.3968917E-3,4.980553E-6],"split_indices":[0,0,2,0,2,3,0,1,0,2,3,0,1,2,1,1,2,3,0,0,1,0,0,0,0,0,0,0,0,0,0,0,0,0,0,0,0],"split_type":[0,0,0,0,0,0,0,0,0,0,0,0,0,0,0,0,0,0,0,0,0,0,0,0,0,0,0,0,0,0,0,0,0,0,0,0,0],"sum_hessian":[1.4510889E5,3.609482E3,1.4149942E5,3.5251547E4,1.0624787E5,3.1021916E4,4.229634E3,1.0616976E5,7.810847E1,1.4834608E4,1.6187308E4,1.3059904E3,1.04863766E5,6.1256123E3,8.708995E3,1.4011476E3,1.4786159E4,1.6551628E2,1.1404741E3,2.881013E3,1.0198275E5,5.9336084E3,1.9200398E2,1.9188563E3,6.790139E3,1.3300992E3,7.104836E1,1.147057E2,1.4671454E4,1.4261972E0,1.6409007E2,1.4088069E2,9.9959344E2,3.9495026E2,2.4860627E3,1.1494075E3,1.0083334E5],"tree_param":{"num_deleted":"0","num_feature":"4","num_nodes":"37","size_leaf_vector":"1"}},{"base_weights":[2.6706753E-3,-2.9990804E-1,2.1773344E-2,9.1318324E-2,-5.836506E-4,-3.625934E-4,2.9991597E-1,-3.6837162E-5,-2.9494274E-1,1.4745182E-3,-1.5647922E-2,-1.6475215E-3,2.8741905E-3,-1.1368514E-4,6.2223017E-2,-1.4775097E-2,-2.3704395E-1,-5.3178776E-2,-7.100928E-4,1.5584943E-3,1.2566623E-1,-3.516409E-2,6.8420806E-5,1.3190807E-2,3.3667636E-1,-5.2573406E-3,1.07116885E-1,1.5967215E-3,-2.4777886E-2,8.5285364E-4,-3.4654445E-3,8.801169E-4,-4.753818E-2,9.5581315E-2,1.5729965E-3],"categories":[],"categories_nodes":[],"categories_segments":[],"categories_sizes":[],"default_left":[0,0,0,0,0,0,0,0,0,0,0,0,0,0,0,0,0,0,0,0,0,0,0,0,0,0,0,0,0,0,0,0,0,0,0],"id":30,"left_children":[1,-1,3,5,7,9,-1,11,-1,13,15,17,19,21,23,25,-1,27,29,31,33,-1,-1,-1,-1,-1,-1,-1,-1,-1,-1,-1,-1,-1,-1],"loss_changes":[2.7391353E3,0E0,2.1825998E2,2.8440698E3,5.707386E1,8.710865E-1,0E0,4.9780947E-1,0E0,2.671811E0,2.23825E0,3.3018227E0,6.109784E0,1.0800712E0,1.3602618E1,3.4059827E0,0E0,2.101818E0,2.5858595E0,8.235089E0,9.313362E0,0E0,0E0,0E0,0E0,0E0,0E0,0E0,0E0,0E0,0E0,0E0,0E0,0E0,0E0],"parents":[2147483647,0,0,2,2,3,3,4,4,5,5,7,7,9,9,10,10,11,11,12,12,13,13,14,14,15,15,17,17,18,18,19,19,20,20],"right_children":[2,-1,4,6,8,10,-1,12,-1,14,16,18,20,22,24,26,-1,28,30,32,34,-1,-1,-1,-1,-1,-1,-1,-1,-1,-1,-1,-1,-1,-1],"split_conditions":[1.9912252E1,-2.9990804E-1,2.8865603E-1,3.0889494E1,3.2353798E-1,7.425685E0,2.9991597E-1,2.101884E0,-2.9494274E-1,6.717494E0,1.551873E0,8.244548E1,8.9370805E-1,-2.4247383E-1,2.3202968E-1,4.9235937E-1,-2.3704395E-1,4.5108734E1,0E0,6.462723E-1,2.916551E2,-3.516409E-2,6.8420806E-5,1.3190807E-2,3.3667636E-1,-5.2573406E-3,1.07116885E-1,1.5967215E-3,-2.4777886E-2,8.5285364E-4,-3.4654445E-3,8.801169E-4,-4.753818E-2,9.5581315E-2,1.5729965E-3],"split_indices":[0,0,2,0,2,1,0,1,0,1,3,0,3,2,2,3,0,0,1,3,0,0,0,0,0,0,0,0,0,0,0,0,0,0,0],"split_type":[0,0,0,0,0,0,0,0,0,0,0,0,0,0,0,0,0,0,0,0,0,0,0,0,0,0,0,0,0,0,0,0,0,0,0],"sum_hessian":[1.4304986E5,2.6742458E3,1.4037561E5,3.4148426E4,1.0622719E5,3.1018832E4,3.129593E3,1.061691E5,5.8085175E1,2.7691547E4,3.3272856E3,6.8350766E4,3.781834E4,2.6987E4,7.0454755E2,3.324558E3,2.7275462E0,1.2201893E3,6.713057E4,3.741842E4,3.999195E2,7.753682E1,2.6909463E4,6.9364453E2,1.0903027E1,3.301102E3,2.3455923E1,4.0851733E2,8.1167194E2,5.056135E4,1.656922E4,3.7100555E4,3.178662E2,1.5305438E2,2.468651E2],"tree_param":{"num_deleted":"0","num_feature":"4","num_nodes":"35","size_leaf_vector":"1"}},{"base_weights":[2.0291954E-3,-2.9986364E-1,1.6256902E-2,6.943365E-2,-4.359932E-4,-2.7694335E-4,2.998797E-1,-2.8776743E-5,-2.932353E-1,2.1848616E-3,-1.003064E-2,1.3374473E-3,-3.674519E-3,-1.9134507E-3,2.7792789E-2,2.0288357E-1,-1.2398936E-2,1.7026083E-4,2.1158056E-2,1.8163392E-2,-7.905987E-3,-4.3121265E-5,-1.6442453E-2,1.0726085E-2,-2.0099096E-2,7.941259E-2,-1.584953E-1,-1.0503525E-1,-3.1276718E-3,3.269965E-4,-1.0599392E-2,9.478286E-3,-3.1357627E-2,-1.118024E-2,1.1140731E-2,-1.8422581E-2,-1.1640539E-3],"categories":[],"categories_nodes":[],"categories_segments":[],"categories_sizes":[],"default_left":[0,0,0,0,0,0,0,0,0,0,0,0,0,0,0,0,0,0,0,0,0,0,0,0,0,0,0,0,0,0,0,0,0,0,0,0,0],"id":31,"left_children":[1,-1,3,5,7,9,-1,11,-1,13,15,17,19,21,23,25,27,29,31,33,35,-1,-1,-1,-1,-1,-1,-1,-1,-1,-1,-1,-1,-1,-1,-1,-1],"loss_changes":[2.0168792E3,0E0,1.23876495E2,2.1619097E3,4.2257023E1,7.4480444E-1,0E0,5.288198E-1,0E0,2.599365E0,3.154629E0,1.7866278E0,2.6744778E0,1.9986567E0,2.580877E0,3.251232E0,4.1171875E0,2.3814836E0,5.6367216E0,4.9419336E0,5.221733E0,0E0,0E0,0E0,0E0,0E0,0E0,0E0,0E0,0E0,0E0,0E0,0E0,0E0,0E0,0E0,0E0],"parents":[2147483647,0,0,2,2,3,3,4,4,5,5,7,7,9,9,10,10,11,11,12,12,13,13,14,14,15,15,16,16,17,17,18,18,19,19,20,20],"right_children":[2,-1,4,6,8,10,-1,12,-1,14,16,18,20,22,24,26,28,30,32,34,36,-1,-1,-1,-1,-1,-1,-1,-1,-1,-1,-1,-1,-1,-1,-1,-1],"split_conditions":[1.9912252E1,-2.9986364E-1,2.8865603E-1,3.0889494E1,3.2353798E-1,6.670375E-2,2.998797E-1,1.9879866E-1,-2.932353E-1,2.5860103E-2,-2.8753233E0,1.4845616E-1,2.0096399E2,1.8745199E-2,7.953388E-1,2.3202968E-1,-2.2949367E0,1.296773E-1,4.453507E0,3.1675753E-1,2.2300697E2,-4.3121265E-5,-1.6442453E-2,1.0726085E-2,-2.0099096E-2,7.941259E-2,-1.584953E-1,-1.0503525E-1,-3.1276718E-3,3.269965E-4,-1.0599392E-2,9.478286E-3,-3.1357627E-2,-1.118024E-2,1.1140731E-2,-1.8422581E-2,-1.1640539E-3],"split_indices":[0,0,2,0,2,2,0,3,0,2,3,3,0,2,3,2,3,3,1,3,0,0,0,0,0,0,0,0,0,0,0,0,0,0,0,0,0],"split_type":[0,0,0,0,0,0,0,0,0,0,0,0,0,0,0,0,0,0,0,0,0,0,0,0,0,0,0,0,0,0,0,0,0,0,0,0,0],"sum_hessian":[1.4153214E5,1.981382E3,1.3955077E5,3.3339992E4,1.0621077E5,3.1016484E4,2.323509E3,1.06167516E5,4.3250225E1,2.4766314E4,6.25017E3,7.7227516E4,2.8940002E4,2.1350318E4,3.4159958E3,6.782592E1,6.1823438E3,7.293365E4,4.293873E3,4.6968804E3,2.4243121E4,2.0660092E4,6.902275E2,3.1519087E3,2.640871E2,6.3126392E1,4.6995254E0,3.4890057E1,6.1474536E3,7.1092836E4,1.8408096E3,3.9653552E3,3.285178E2,1.1974303E3,3.49945E3,1.6955228E3,2.2547598E4],"tree_param":{"num_deleted":"0","num_feature":"4","num_nodes":"37","size_leaf_vector":"1"}},{"base_weights":[1.4732165E-3,-2.9980686E-1,1.2056186E-2,5.2232265E-2,-3.268466E-4,-2.2301976E-4,2.998318E-1,-2.3084152E-5,-2.909909E-1,4.8876327E-4,-2.7721511E-2,1.6543076E-3,-2.6505198E-3,-6.9989415E-5,9.067252E-2,6.7812294E-1,-3.1342905E-2,1.12401205E-4,1.5474557E-2,-5.6350574E-2,1.1868605E-3,-5.7466743E-3,5.373435E-4,8.131897E-2,-6.292639E-3,-4.017977E-2,3.2145068E-1,-7.129407E-3,-9.8659456E-2,4.1785344E-4,-9.008568E-3,2.825016E-2,2.0741278E-3,-1.4326231E-1,-1.597527E-2,6.800285E-4,-1.3781036E-2],"categories":[],"categories_nodes":[],"categories_segments":[],"categories_sizes":[],"default_left":[0,0,0,0,0,0,0,0,0,0,0,0,0,0,0,0,0,0,0,0,0,0,0,0,0,0,0,0,0,0,0,0,0,0,0,0,0],"id":32,"left_children":[1,-1,3,5,7,9,-1,11,-1,13,15,17,19,21,23,25,27,29,31,33,35,-1,-1,-1,-1,-1,-1,-1,-1,-1,-1,-1,-1,-1,-1,-1,-1],"loss_changes":[1.4870801E3,0E0,6.9118256E1,1.6263403E3,3.1280035E1,6.070842E-1,0E0,4.679079E-1,0E0,1.52352E0,2.0216565E0,1.3808404E0,8.524825E0,1.067401E0,3.7551913E0,1.4336902E0,1.749821E0,2.24992E0,4.3808603E0,3.5766592E0,1.9649599E0,0E0,0E0,0E0,0E0,0E0,0E0,0E0,0E0,0E0,0E0,0E0,0E0,0E0,0E0,0E0,0E0],"parents":[2147483647,0,0,2,2,3,3,4,4,5,5,7,7,9,9,10,10,11,11,12,12,13,13,14,14,15,15,16,16,17,17,18,18,19,19,20,20],"right_children":[2,-1,4,6,8,10,-1,12,-1,14,16,18,20,22,24,26,28,30,32,34,36,-1,-1,-1,-1,-1,-1,-1,-1,-1,-1,-1,-1,-1,-1,-1,-1],"split_conditions":[1.9912252E1,-2.9980686E-1,2.8865603E-1,3.0889494E1,3.2353798E-1,1.1998992E1,2.998318E-1,5.2621246E2,-2.909909E-1,1.1377901E1,-2.4247383E-1,3.7148044E2,5.754511E2,-6.238431E-1,-6.900948E-1,1.3870167E1,5.3238004E-2,3.3839578E2,-6.7257905E0,-4.119595E0,1.1998992E1,-5.7466743E-3,5.373435E-4,8.131897E-2,-6.292639E-3,-4.017977E-2,3.2145068E-1,-7.129407E-3,-9.8659456E-2,4.1785344E-4,-9.008568E-3,2.825016E-2,2.0741278E-3,-1.4326231E-1,-1.597527E-2,6.800285E-4,-1.3781036E-2],"split_indices":[0,0,2,0,2,1,0,0,0,1,2,0,0,3,3,1,3,0,1,3,1,0,0,0,0,0,0,0,0,0,0,0,0,0,0,0,0],"split_type":[0,0,0,0,0,0,0,0,0,0,0,0,0,0,0,0,0,0,0,0,0,0,0,0,0,0,0,0,0,0,0,0,0,0,0,0,0],"sum_hessian":[1.4039773E5,1.4680818E3,1.3892966E5,3.2731346E4,1.06198305E5,3.1014781E4,1.7165647E3,1.0616605E5,3.2258884E1,3.0233193E4,7.81587E2,6.4798285E4,4.136776E4,3.0048025E4,1.8516971E2,3.0388103E0,7.7854816E2,5.829536E4,6.502926E3,2.7580535E3,3.8609707E4,2.6689668E3,2.7379059E4,7.024552E1,1.1492418E2,1.2069105E0,1.8318998E0,7.602633E2,1.8284882E1,5.59207E4,2.3746604E3,6.37048E2,5.8658774E3,1.90309E1,2.7390227E3,3.7745668E4,8.640404E2],"tree_param":{"num_deleted":"0","num_feature":"4","num_nodes":"37","size_leaf_vector":"1"}},{"base_weights":[1.0872618E-3,-2.9973269E-1,8.951743E-3,3.9208014E-2,-2.471482E-4,-1.6208387E-4,2.9976892E-1,-2.00561E-5,-2.88063E-1,-1.2885466E-3,1.6863542E-2,-3.3046873E-4,1.9780604E-2,5.4462213E-4,-3.3351824E-2,-7.5469166E-2,6.535023E-2,1.113443E-4,-1.3862142E-2,1.5150958E-2,4.5840046E-1,2.1741092E-3,-1.445566E-3,1.7877431E-3,-3.0617999E-2,4.320728E-1,-2.4542714E-2,6.437019E-3,4.750526E-2,-6.9535505E-5,1.8171549E-2,-6.207779E-3,5.3555943E-2,1.4283619E-2,-1.5856342E-2,1.3898283E-2,2.3951398E-1],"categories":[],"categories_nodes":[],"categories_segments":[],"categories_sizes":[],"default_left":[0,0,0,0,0,0,0,0,0,0,0,0,0,0,0,0,0,0,0,0,0,0,0,0,0,0,0,0,0,0,0,0,0,0,0,0,0],"id":33,"left_children":[1,-1,3,5,7,9,-1,11,-1,13,15,17,19,21,23,25,27,29,31,33,35,-1,-1,-1,-1,-1,-1,-1,-1,-1,-1,-1,-1,-1,-1,-1,-1],"loss_changes":[1.0978048E3,0E0,3.8540634E1,1.2202456E3,2.314939E1,5.9483254E-1,0E0,6.525418E-1,0E0,1.7098747E0,8.621678E0,6.249202E-1,3.3206434E0,9.892061E-1,4.2499733E0,6.490568E0,5.1504183E0,2.0999875E0,4.3466167E0,3.5844474E0,2.3560615E0,0E0,0E0,0E0,0E0,0E0,0E0,0E0,0E0,0E0,0E0,0E0,0E0,0E0,0E0,0E0,0E0],"parents":[2147483647,0,0,2,2,3,3,4,4,5,5,7,7,9,9,10,10,11,11,12,12,13,13,14,14,15,15,16,16,17,17,18,18,19,19,20,20],"right_children":[2,-1,4,6,8,10,-1,12,-1,14,16,18,20,22,24,26,28,30,32,34,36,-1,-1,-1,-1,-1,-1,-1,-1,-1,-1,-1,-1,-1,-1,-1,-1],"split_conditions":[1.9912252E1,-2.9973269E-1,2.8865603E-1,3.0889494E1,3.2353798E-1,1.5821846E-1,2.9976892E-1,1.2788467E1,-2.88063E-1,1.1484157E-1,-2.4643154E0,9.660328E0,2.0324393E3,-5.271864E-1,2.0128164E0,-1.9394513E0,2.4300758E-2,9.336706E0,1.2376081E-1,6.546871E2,-2.7961215E-1,2.1741092E-3,-1.445566E-3,1.7877431E-3,-3.0617999E-2,4.320728E-1,-2.4542714E-2,6.437019E-3,4.750526E-2,-6.9535505E-5,1.8171549E-2,-6.207779E-3,5.3555943E-2,1.4283619E-2,-1.5856342E-2,1.3898283E-2,2.3951398E-1],"split_indices":[0,0,2,0,2,2,0,1,0,2,1,1,0,1,1,3,3,1,3,0,3,0,0,0,0,0,0,0,0,0,0,0,0,0,0,0,0],"split_type":[0,0,0,0,0,0,0,0,0,0,0,0,0,0,0,0,0,0,0,0,0,0,0,0,0,0,0,0,0,0,0,0,0,0,0,0,0],"sum_hessian":[1.3956072E5,1.0878129E3,1.384729E5,3.2283918E4,1.06188984E5,3.1013084E4,1.2708341E3,1.0616487E5,2.4114704E1,2.9089373E4,1.9237096E3,1.04527195E5,1.6376772E3,2.751711E4,1.5722655E3,6.621767E2,1.261533E3,1.0122322E5,3.3039753E3,1.6215958E3,1.6081453E1,1.2231251E4,1.5285857E4,1.0006582E3,5.7160736E2,1.8161107E0,6.603606E2,8.578732E2,4.0365964E2,1.0065298E5,5.7023627E2,3.191553E3,1.1242255E2,1.0978553E3,5.237405E2,7.7835956E0,8.297858E0],"tree_param":{"num_deleted":"0","num_feature":"4","num_nodes":"37","size_leaf_vector":"1"}},{"base_weights":[8.5450185E-4,-2.996344E-1,6.6948202E-3,3.0009165E-2,-9.0176145E-5,4.3891452E-4,2.9967827E-1,7.8800214E-5,-2.842823E-1,-8.1509486E-4,5.698767E-2,-6.1767297E-3,9.913456E-4,1.885451E-3,-1.1896287E-2,8.214916E-2,-1.704868E-1,-1.7908332E-3,-5.2740633E-2,3.7781827E-2,1.8180788E-5,1.163488E-4,3.1559877E-2,2.814094E-3,-1.2050246E-2,3.957575E-2,-1.6530992E-2,-6.894986E-2,8.0601886E-2,-8.2702674E-2,-3.8441157E-4,-8.319006E-3,-5.5544924E-2,-6.9940954E-2,1.2892973E-2,-1.1354114E-2,1.6273453E-4],"categories":[],"categories_nodes":[],"categories_segments":[],"categories_sizes":[],"default_left":[0,0,0,0,0,0,0,0,0,0,0,0,0,0,0,0,0,0,0,0,0,0,0,0,0,0,0,0,0,0,0,0,0,0,0,0,0],"id":34,"left_children":[1,-1,3,5,7,9,-1,11,-1,13,15,17,19,21,23,25,27,29,31,33,35,-1,-1,-1,-1,-1,-1,-1,-1,-1,-1,-1,-1,-1,-1,-1,-1],"loss_changes":[8.1122235E2,0E0,2.1852648E1,8.9220734E2,1.7132332E1,2.142967E0,0E0,6.107324E-1,0E0,8.8474935E-1,3.7664375E0,2.7814894E0,3.3428383E0,3.6781254E0,3.485158E0,4.0443306E0,1.7719891E0,1.7366734E0,3.8775263E0,3.396188E0,1.8057536E0,0E0,0E0,0E0,0E0,0E0,0E0,0E0,0E0,0E0,0E0,0E0,0E0,0E0,0E0,0E0,0E0],"parents":[2147483647,0,0,2,2,3,3,4,4,5,5,7,7,9,9,10,10,11,11,12,12,13,13,14,14,15,15,16,16,17,17,18,18,19,19,20,20],"right_children":[2,-1,4,6,8,10,-1,12,-1,14,16,18,20,22,24,26,28,30,32,34,36,-1,-1,-1,-1,-1,-1,-1,-1,-1,-1,-1,-1,-1,-1,-1,-1],"split_conditions":[1.9912252E1,-2.996344E-1,2.0917131E-1,3.0889494E1,3.2353798E-1,1.7647289E-1,2.9967827E-1,-6.2172303E0,-2.842823E-1,5.3278264E-2,6.7893463E-1,-6.5495234E0,-5.6095986E0,4.9080018E-2,4.4651598E-2,3.9134288E0,2.9594054E0,2.1982521E-1,8.8528827E2,-5.171207E-1,-5.328773E0,1.163488E-4,3.1559877E-2,2.814094E-3,-1.2050246E-2,3.957575E-2,-1.6530992E-2,-6.894986E-2,8.0601886E-2,-8.2702674E-2,-3.8441157E-4,-8.319006E-3,-5.5544924E-2,-6.9940954E-2,1.2892973E-2,-1.1354114E-2,1.6273453E-4],"split_indices":[0,0,2,0,2,2,0,1,0,2,3,1,1,2,3,1,3,2,0,3,1,0,0,0,0,0,0,0,0,0,0,0,0,0,0,0,0],"split_type":[0,0,0,0,0,0,0,0,0,0,0,0,0,0,0,0,0,0,0,0,0,0,0,0,0,0,0,0,0,0,0,0,0,0,0,0,0],"sum_hessian":[1.3894881E5,8.0609814E2,1.3814272E5,3.1139373E4,1.0700334E5,3.0218152E4,9.2122205E2,1.06985266E5,1.8079395E1,2.9563545E4,6.546073E2,1.3619229E4,9.336604E4,2.3771205E4,5.79234E3,5.899864E2,6.462093E1,1.2447797E4,1.1714309E3,2.4050574E3,9.096098E4,2.3432535E4,3.3866974E2,3.3053997E3,2.4869402E3,4.3300903E2,1.5697734E2,5.7347855E1,7.273076E0,2.2108727E1,1.2425688E4,9.8633295E2,1.8509795E2,4.44228E1,2.3606345E3,1.24124E3,8.971974E4],"tree_param":{"num_deleted":"0","num_feature":"4","num_nodes":"37","size_leaf_vector":"1"}},{"base_weights":[6.117388E-4,-2.9950315E-1,4.946475E-3,5.045637E-3,-2.7946478E-1,2.2623379E-2,3.9731574E-5,5.9710536E-4,2.9955795E-1,-2.4996176E-2,3.216947E-4,-5.804896E-4,1.0493715E-1,5.0751623E-2,-5.0392754E-2,2.9173753E-1,-1.0866109E-5,4.501296E-4,-2.653699E-3,-3.640508E-2,4.749492E-2,-2.0295773E-1,2.5116084E-2,-3.5096053E-2,5.6218416E-3,1.08741144E-4,-3.7221883E-3],"categories":[],"categories_nodes":[],"categories_segments":[],"categories_sizes":[],"default_left":[0,0,0,0,0,0,0,0,0,0,0,0,0,0,0,0,0,0,0,0,0,0,0,0,0,0,0],"id":35,"left_children":[1,-1,3,5,-1,7,9,11,-1,13,15,17,19,21,23,-1,25,-1,-1,-1,-1,-1,-1,-1,-1,-1,-1],"loss_changes":[5.997391E2,0E0,1.2811027E1,1.2133201E1,0E0,6.5700037E2,7.5764024E-1,3.6727712E0,0E0,2.3019745E0,3.431164E1,5.0839263E-1,4.048707E0,7.2648506E0,4.125639E0,0E0,4.9102044E-1,0E0,0E0,0E0,0E0,0E0,0E0,0E0,0E0,0E0,0E0],"parents":[2147483647,0,0,2,2,3,3,5,5,6,6,7,7,9,9,10,10,11,11,12,12,13,13,14,14,16,16],"right_children":[2,-1,4,6,-1,8,10,12,-1,14,16,18,20,22,24,-1,26,-1,-1,-1,-1,-1,-1,-1,-1,-1,-1],"split_conditions":[1.9912252E1,-2.9950315E-1,3.2353798E-1,1.9123353E-1,-2.7946478E-1,3.0889494E1,3.0889494E1,1.7647289E-1,2.9955795E-1,-2.0354845E-1,2.8865603E-1,5.1185768E-2,-5.0637608E0,-5.195443E0,9.612095E-2,2.9173753E-1,1.6685204E3,4.501296E-4,-2.653699E-3,-3.640508E-2,4.749492E-2,-2.0295773E-1,2.5116084E-2,-3.5096053E-2,5.6218416E-3,1.08741144E-4,-3.7221883E-3],"split_indices":[0,0,2,2,0,0,0,2,0,3,2,2,1,1,3,0,0,0,0,0,0,0,0,0,0,0,0],"split_type":[0,0,0,0,0,0,0,0,0,0,0,0,0,0,0,0,0,0,0,0,0,0,0,0,0,0,0],"sum_hessian":[1.3849903E5,5.973971E2,1.3790164E5,1.3788803E5,1.3605864E1,3.056357E4,1.0732446E5,2.988995E4,6.736198E2,1.1942878E3,1.0613017E5,2.9557355E4,3.3259363E2,2.9962585E2,8.9466205E2,3.529429E1,1.0609488E5,2.3613105E4,5.94425E3,6.3238243E1,2.6935538E2,1.2146993E1,2.8747888E2,4.553437E2,4.3931833E2,1.0299403E5,3.1008452E3],"tree_param":{"num_deleted":"0","num_feature":"4","num_nodes":"27","size_leaf_vector":"1"}},{"base_weights":[4.592951E-4,-2.9932734E-1,3.676054E-3,3.7510456E-3,-2.7342802E-1,1.6872158E-2,3.4331963E-5,4.0750823E-4,2.9940397E-1,-3.9265454E-3,1.4270224E-3,-4.0718337E-4,7.065037E-2,-2.4742081E-3,-7.19084E-2,2.854091E-1,1.1809781E-3,-2.149953E-3,6.8885565E-4,3.0835494E-2,-5.9671745E-2,-2.6584065E-3,2.9289578E-3,1.10968255E-1,-2.9324496E-2,2.635915E-3,-3.136759E-4],"categories":[],"categories_nodes":[],"categories_segments":[],"categories_sizes":[],"default_left":[0,0,0,0,0,0,0,0,0,0,0,0,0,0,0,0,0,0,0,0,0,0,0,0,0,0,0],"id":36,"left_children":[1,-1,3,5,-1,7,9,11,-1,13,15,17,19,21,23,-1,25,-1,-1,-1,-1,-1,-1,-1,-1,-1,-1],"loss_changes":[4.436299E2,0E0,9.454045E0,6.715477E0,0E0,4.9102515E2,5.919512E-1,1.710842E0,0E0,2.7560282E0,1.8555365E1,5.4005206E-1,2.989509E0,2.1364906E0,6.7017403E0,0E0,1.3441305E0,0E0,0E0,0E0,0E0,0E0,0E0,0E0,0E0,0E0,0E0],"parents":[2147483647,0,0,2,2,3,3,5,5,6,6,7,7,9,9,10,10,11,11,12,12,13,13,14,14,16,16],"right_children":[2,-1,4,6,-1,8,10,12,-1,14,16,18,20,22,24,-1,26,-1,-1,-1,-1,-1,-1,-1,-1,-1,-1],"split_conditions":[1.9912252E1,-2.9932734E-1,3.2353798E-1,1.9123353E-1,-2.7342802E-1,3.0889494E1,2.3240561E2,1.7647289E-1,2.9940397E-1,2.3071844E2,2.8865603E-1,-7.182101E-2,5.8776647E-1,2.4604425E0,-8.456814E0,2.854091E-1,2.8363965E2,-2.149953E-3,6.8885565E-4,3.0835494E-2,-5.9671745E-2,-2.6584065E-3,2.9289578E-3,1.10968255E-1,-2.9324496E-2,2.635915E-3,-3.136759E-4],"split_indices":[0,0,2,2,0,0,0,2,0,0,2,2,3,1,1,0,0,0,0,0,0,0,0,0,0,0,0],"split_type":[0,0,0,0,0,0,0,0,0,0,0,0,0,0,0,0,0,0,0,0,0,0,0,0,0,0,0],"sum_hessian":[1.3815625E5,4.4278592E2,1.3771347E5,1.3770317E5,1.0288675E1,3.0395258E4,1.07307914E5,2.9894594E4,5.006645E2,2.7914875E4,7.939304E4,2.9552828E4,3.4176578E2,2.7332002E4,5.8287354E2,1.9557383E1,7.9373484E4,8.442387E3,2.1110441E4,3.0591537E2,3.5850403E1,1.795888E4,9.37312E3,3.1471373E1,5.5140216E2,1.7974387E4,6.1399094E4],"tree_param":{"num_deleted":"0","num_feature":"4","num_nodes":"27","size_leaf_vector":"1"}},{"base_weights":[3.556807E-4,-2.990913E-1,2.7423997E-3,2.7994523E-3,-2.660171E-1,1.2603114E-2,3.3584103E-5,2.7758596E-4,2.9919982E-1,-1.1392877E-3,3.5588848E-3,-9.5467776E-4,2.4401475E-2,-1.463317E-3,6.5259725E-2,2.4963628E-1,3.3744778E-3,1.4140745E-4,-1.553562E-2,1.3390829E-1,5.5503557E-3,6.2200274E-6,-4.35143E-3,-4.3896765E-2,2.8128756E-2,1.3097206E-2,4.9443106E-4],"categories":[],